A 0.02212 -0.021808 -0.028967 -0.036346 0.026174 -0.068189 -0.008796 -0.052573 0.051916 -0.00302 -0.000714 -0.013246 -0.002844 -0.011405 0.002749 0.010422 -0.021993 0.002724 -0.022862 0.031034 -0.028419 -0.025433 0.008223 0.020735 -0.036723 -0.022822 -0.054022 0.055665 -0.029698 0.039483 0.007072 -0.004939 -0.014291 0.017114 0.014967 -0.01887 -0.014183 -0.012528 -0.050114 -0.041393 0.044009 0.051445 -0.027473 -0.009851 -0.026677 -0.031445 0.02688 -0.025914 -0.068357 0.035984 -0.001972 0.05347 -0.010955 0.06098 0.004318 0.005325 -0.049379 -0.036832 0.01622 -0.011049 -0.031608 -0.002282 -0.013757 -0.024221 -0.019863 0.023288 -0.021662 0.015739 -0.081553 0.029687 -0.058715 -0.021863 0.003477 0.050754 -0.026052 0.060766 -0.039801 0.00536 -0.051094 -0.035595 -0.003478 -0.023444 0.011347 -0.02069 0.036962 -0.038106 0.026858 -0.005306 0.02685 -0.002151 -0.003248 -0.055307 0.002242 0.020694 -0.044254 -0.019291 0.031749 0.021606 0.021333 0.024334 -0.054912 -0.077513 -0.051114 0.036541 -0.025123 -0.037709 -0.020458 -0.043868 -0.000376 0.053314 0.040204 0.016765 0.012157 0.025468 -0.027877 -0.008213 -0.00081 -0.000945 -0.00176 -0.014948 0.008445 -0.001629 -0.006458 -0.044514 0.021838 0.001366 0.04672 -0.044436 0.014221 -0.009342 0.0289 0.032891 -0.030201 -0.001188 -0.011858 0.030849 -0.007356 -0.053852 0.057438 -0.024523 -0.041695 -0.035252 -0.027622 0.010065 -0.047522 -0.023436 0.014805 -0.013629 0.092574 -0.01615 0.034843 0.008888 -0.02888 -0.042308 -0.037982 -0.003979 0.038498 0.039808 -0.07 -0.01918 -0.018408 -0.064691 -0.004397 -0.00502 -0.019693 -0.017337 -0.011072 0.049624 0.016904 -0.052079 0.017831 -0.035434 0.004779 0.001589 0.056693 -0.047448 0.027302 -0.033757 -0.009698 0.05602 0.023266 0.06353 0.057626 0.026492 -0.037297 0.025259 -0.013329 -0.04376 0.003089 -0.037413 -0.018777 -0.00407 0.011099 0.00213 0.032587 0.086319 0.010667 0.028575 -0.010422 0.023996 -0.043108 -0.000601 -0.001047 0.018954 -0.000512 -0.017692 -0.016999 0.021523 -0.014058 0.071321 -0.092638 -0.088143 -0.008657 -0.005042 0.059275 0.002402 -0.079124 0.035903 -0.041184 -0.031807 0.0537 -0.006586 -0.030388 -0.005603 -0.089108 -0.019784 0.008818 -0.023657 -0.058827 -0.00116 0.039144 0.000567 0.054152 -0.00557 -0.024139 0.044317 -0.000758 0.016927 -0.034019 0.033597 0.117801 -0.019536 0.04214 -0.071355 -0.064062 -0.049868 -0.014932 -0.017141 -0.025282 0.051161 0.074735 0.026813 0.015665 0.024903 -0.013943 -0.022114 -0.025206 -0.00387 -0.051745 -0.04048 0.055391 0.097064 -0.031113 -0.02666 0.003445 0.063803 -0.013562 0.016581 -0.00776 0.059823 -0.011036 0.034012 0.062418 0.010505 0.000813 0.005749 -0.015634 0.046936 0.010247 -0.054762 -0.075859 0.025383 -0.042074 0.037613 0.089695 -0.002502 0.05607 0.026773 0.023276 -0.048137 -0.003365 -0.001146 -0.047311 0.005691 -0.009594 -0.040669 0.007811 -0.045471 -0.018122 0.005847
C 0.017299 -0.017754 -0.0249 -0.035121 0.022586 -0.053684 -0.009693 -0.049613 0.050476 -0.01316 -0.007477 -0.015428 -0.002213 -0.01341 0.008819 0.009127 -0.021739 -0.000119 -0.021134 0.033952 -0.021375 -0.021431 0.005462 0.027105 -0.025196 -0.018421 -0.050092 0.053324 -0.02819 0.044352 0.002509 -0.009423 -0.016646 0.018532 0.017281 -0.020138 -0.012609 -0.008586 -0.046169 -0.042104 0.046526 0.047436 -0.029629 -0.014329 -0.024962 -0.035701 0.030257 -0.028755 -0.069355 0.035616 -0.002848 0.05324 -0.006726 0.067417 0.005128 0.006931 -0.050795 -0.035996 0.022534 -0.005718 -0.026133 0.004756 -0.01208 -0.025273 -0.017445 0.024986 -0.018986 0.025297 -0.08076 0.023608 -0.054938 -0.025574 0.002713 0.047661 -0.03417 0.056217 -0.039846 0.00865 -0.042314 -0.027225 -0.003517 -0.021988 0.011581 -0.02094 0.027199 -0.033451 0.014576 -0.001594 0.032101 0.002013 -0.003563 -0.052533 0.011626 0.009368 -0.035129 -0.02056 0.037245 0.020813 0.017819 0.028217 -0.05045 -0.077017 -0.051359 0.037079 -0.017396 -0.030401 -0.0257 -0.043399 0.000324 0.054843 0.037913 0.016967 0.010378 0.021847 -0.025129 -0.00876 0.004593 0.006621 -0.002224 -0.007481 0.004886 0.000872 -0.016193 -0.041907 0.016039 0.000609 0.042311 -0.040773 0.016763 -0.006633 0.02523 0.034795 -0.030263 -0.002454 -0.021309 0.036597 -0.005816 -0.060171 0.045833 -0.028242 -0.037786 -0.034495 -0.025993 0.013208 -0.050746 -0.014937 0.01443 -0.016165 0.094631 -0.013695 0.033164 0.005979 -0.032903 -0.037742 -0.03003 -0.012231 0.037923 0.033137 -0.061281 -0.017783 -0.013922 -0.058145 0.002176 -0.007109 -0.013516 -0.020442 -0.014083 0.048452 0.017253 -0.053591 0.026922 -0.040456 0.003726 -0.003882 0.055853 -0.048168 0.021968 -0.028224 -0.004018 0.051671 0.030775 0.05788 0.054098 0.020671 -0.033215 0.018957 -0.008013 -0.044735 -0.000685 -0.032866 -0.025712 -0.002326 0.010947 0.007963 0.028892 0.082155 0.012061 0.030909 -0.013058 0.013181 -0.044393 -0.001136 -0.003762 0.012668 -0.000251 -0.02318 -0.010411 0.015182 -0.011422 0.063196 -0.082893 -0.083079 -0.014127 -0.001054 0.059563 0.009521 -0.070526 0.038506 -0.038717 -0.033383 0.048107 -0.008184 -0.023505 -0.004256 -0.089321 -0.020854 0.009133 -0.029622 -0.058581 0.004025 0.032222 0.003476 0.045961 0.003485 -0.035415 0.054513 0.002562 0.016699 -0.034159 0.035271 0.113455 -0.021781 0.035029 -0.069083 -0.070649 -0.041238 -0.025116 -0.023247 -0.032051 0.041922 0.073475 0.031585 0.009672 0.025878 -0.017473 -0.017907 -0.022877 -0.000623 -0.057856 -0.042222 0.052665 0.099376 -0.030864 -0.025474 -0.000608 0.0565 -0.008788 0.015681 -0.015824 0.058603 -0.005013 0.02957 0.063705 0.009802 -0.000404 0.007003 -0.017027 0.051217 0.002009 -0.056896 -0.070855 0.025393 -0.045472 0.036544 0.081055 -0.011043 0.051377 0.021061 0.020255 -0.048034 -0.005877 0.001156 -0.046165 0.008304 -0.012374 -0.039589 0.004049 -0.052418 -0.016592 0.00395
B 0.005925 -0.006089 -0.030921 -0.038275 0.030876 -0.051721 -0.010037 -0.053655 0.060119 -0.02718 -0.002735 -0.004905 -0.004314 -0.013095 0.00431 -0.003386 -0.023516 -0.008548 -0.021937 0.037927 -0.02082 -0.011864 0.014659 0.02881 -0.030179 -0.024147 -0.0482 0.055002 -0.032645 0.039522 0.000323 -0.00671 -0.017239 0.024744 0.02368 -0.025257 -0.009133 -0.004415 -0.045453 -0.039721 0.044791 0.048612 -0.026681 -0.011249 -0.028925 -0.032642 0.034234 -0.028717 -0.070074 0.031703 -0.002585 0.043843 0.005093 0.084247 0.007375 -0.0038 -0.054846 -0.021975 0.027576 -0.012571 -0.028213 0.002879 -0.005001 -0.015765 -0.009879 0.027569 -0.023521 0.028804 -0.082033 0.021567 -0.058764 -0.020993 0.01137 0.048439 -0.043441 0.04614 -0.041368 0.015926 -0.029922 -0.024654 0.003591 -0.01422 0.008539 -0.022235 0.035293 -0.024258 0.006348 0.004972 0.034873 0.001113 -0.004966 -0.055432 0.01625 0.002535 -0.036973 -0.022096 0.052931 0.023963 0.030354 0.029519 -0.050058 -0.081901 -0.055581 0.039029 -0.02168 -0.037009 -0.022046 -0.045601 0.004962 0.052904 0.047371 0.017193 0.004354 0.009631 -0.025256 -0.004965 0.016807 0.019931 0.002806 -0.0131 0.01257 -0.005372 -0.025578 -0.047268 0.007698 -0.005627 0.034454 -0.033679 0.014445 -0.008584 0.022653 0.037795 -0.02736 0.010823 -0.023639 0.050677 -0.004328 -0.061075 0.042709 -0.027658 -0.031931 -0.041763 -0.022358 0.014958 -0.042257 -0.017804 0.006026 -0.005924 0.089181 -0.016046 0.026597 0.020183 -0.027232 -0.048414 -0.029357 -0.012006 0.029259 0.0321 -0.056034 -0.011483 -0.006903 -0.049357 0.010351 -0.016427 0.001632 -0.024259 -0.014608 0.050113 0.012828 -0.051112 0.034605 -0.037185 0.007114 -0.009195 0.062183 -0.049695 0.016688 -0.030436 0.002027 0.050968 0.023874 0.063137 0.054344 0.014622 -0.037633 0.011425 -0.003932 -0.043352 0.000802 -0.023861 -0.03833 -0.00601 0.009213 0.007997 0.033069 0.083744 0.013236 0.037093 -0.006769 0.002061 -0.048497 0.008888 0.003734 0.015542 -0.007389 -0.033037 -0.006302 0.017038 -0.007875 0.059632 -0.079325 -0.086571 -0.032823 0.012092 0.061736 0.011405 -0.066342 0.042997 -0.039647 -0.032493 0.059749 -0.012402 -0.021082 -0.004993 -0.101239 -0.026438 0.01086 -0.040651 -0.059504 -0.002514 0.036066 0.002022 0.043786 0.009496 -0.036338 0.062094 -0.000507 0.013432 -0.043052 0.039153 0.123599 -0.022809 0.032965 -0.071138 -0.083184 -0.040147 -0.029494 -0.035899 -0.024334 0.03945 0.069248 0.033341 0.014596 0.029709 -0.016649 -0.017466 -0.019587 0.008591 -0.062836 -0.028696 0.039703 0.087223 -0.02701 -0.017698 0.008959 0.043591 -0.009731 0.01442 -0.013809 0.060773 -0.00543 0.009949 0.065171 0.010564 2e-05 0.005486 -0.001841 0.062125 0.001432 -0.051509 -0.063154 0.037564 -0.037158 0.034931 0.076809 -0.009038 0.045738 0.011758 0.017238 -0.037841 -0.005029 0.007826 -0.041762 0.009657 -0.00904 -0.041003 0.008438 -0.058653 -0.026162 0.009504
E 0.032428 -0.024178 -0.033783 -0.03572 0.030202 -0.070328 -0.006832 -0.051157 0.043641 0.007249 -0.000809 -0.013511 3e-06 -0.016812 0.002597 0.013173 -0.019245 0.007411 -0.020961 0.028279 -0.032401 -0.02705 0.006165 0.019263 -0.040811 -0.01742 -0.05479 0.057937 -0.02926 0.038824 0.010273 -0.002056 -0.011646 0.012988 0.015166 -0.014591 -0.016322 -0.014113 -0.052499 -0.041514 0.045755 0.052885 -0.025901 -0.012968 -0.025534 -0.032477 0.028334 -0.024888 -0.066867 0.041837 -0.001633 0.052936 -0.014211 0.058435 0.002906 0.005149 -0.047544 -0.045317 0.012744 -0.013992 -0.038929 -0.007794 -0.013103 -0.024943 -0.021449 0.022431 -0.021766 0.01658 -0.084181 0.036526 -0.061645 -0.027045 -0.000393 0.053181 -0.022338 0.065369 -0.041097 0.001173 -0.057656 -0.037853 -0.004539 -0.026553 0.010225 -0.016623 0.0387 -0.040683 0.032381 -0.007537 0.023237 -0.002328 -0.002138 -0.054475 -0.003071 0.028151 -0.046982 -0.015101 0.025829 0.017381 0.019483 0.021752 -0.053397 -0.078667 -0.049919 0.036175 -0.028533 -0.042697 -0.018392 -0.043827 -0.001251 0.052222 0.039878 0.018419 0.014585 0.030669 -0.028066 -0.009476 -0.004515 -0.006822 -0.00315 -0.016683 0.007684 -0.000127 0.002239 -0.046364 0.02182 0.00446 0.053071 -0.047356 0.015458 -0.009386 0.031828 0.03679 -0.036269 -0.002877 -0.010065 0.026873 -0.006939 -0.050358 0.063889 -0.022247 -0.043283 -0.035296 -0.026602 0.008521 -0.047922 -0.022411 0.017123 -0.018632 0.094023 -0.017557 0.036963 0.010213 -0.030814 -0.041054 -0.04289 0.001106 0.040529 0.040228 -0.072891 -0.022503 -0.020321 -0.069789 -0.010787 -0.002242 -0.023218 -0.016802 -0.012914 0.047342 0.014634 -0.052139 0.007037 -0.029143 0.002764 0.010237 0.056265 -0.052806 0.030651 -0.034896 -0.015633 0.055474 0.018309 0.064581 0.055437 0.028963 -0.040727 0.033244 -0.018172 -0.042091 0.001165 -0.036981 -0.012592 -0.001583 0.009161 0.001238 0.030894 0.085817 0.007086 0.024519 -0.012591 0.030846 -0.040481 -0.002408 0.002053 0.022317 -0.000558 -0.014206 -0.025575 0.022167 -0.016036 0.075019 -0.099827 -0.088816 -0.003792 -0.010727 0.061668 -0.003119 -0.082964 0.034617 -0.043713 -0.030655 0.056476 0.000417 -0.033967 -0.005521 -0.086163 -0.021968 0.00823 -0.019439 -0.056651 -0.003082 0.038156 0.003355 0.058941 -0.009186 -0.023188 0.040652 -0.000719 0.017027 -0.029727 0.028103 0.11885 -0.018267 0.043469 -0.076275 -0.058479 -0.053343 -0.009286 -0.013315 -0.022535 0.053319 0.081307 0.026066 0.016178 0.022461 -0.014557 -0.025011 -0.029784 -0.003121 -0.042894 -0.043053 0.057363 0.09936 -0.034085 -0.025989 0.002019 0.067484 -0.019928 0.021809 -0.004001 0.065722 -0.013731 0.036075 0.058436 0.015371 0.001246 0.006207 -0.020364 0.042769 0.016113 -0.051904 -0.078421 0.022416 -0.041323 0.037349 0.094301 -0.004536 0.061575 0.029246 0.027691 -0.048564 -0.004046 -0.004278 -0.052031 0.004815 -0.01299 -0.042782 0.008502 -0.040701 -0.020785 0.004498
D 0.023452 -0.018923 -0.037276 -0.036557 0.026741 -0.055654 -0.010124 -0.041147 0.049682 -0.004367 -0.001974 -0.009141 0.007035 -0.022923 0.005682 0.00206 -0.02257 -0.003466 -0.023754 0.035168 -0.029463 -0.013862 0.0104 0.024121 -0.03607 -0.018913 -0.048613 0.054454 -0.031029 0.039898 0.00891 0.000702 -0.014674 0.012085 0.020947 -0.018342 -0.013446 -0.009014 -0.051419 -0.040687 0.04847 0.053618 -0.021465 -0.007649 -0.026357 -0.030299 0.035371 -0.020752 -0.061425 0.04002 -0.003186 0.050514 -0.002293 0.07066 0.005867 -0.003697 -0.053707 -0.039307 0.023936 -0.015421 -0.037485 0.000394 -0.009718 -0.023922 -0.017496 0.025922 -0.0232 0.025805 -0.081481 0.035303 -0.064459 -0.02961 -0.001103 0.05908 -0.035848 0.05508 -0.03541 0.004786 -0.046371 -0.030921 0.001921 -0.015807 0.00704 -0.013211 0.035197 -0.029261 0.013126 -0.006616 0.037972 0.00198 0.000138 -0.051087 0.006657 0.019646 -0.042906 -0.014079 0.038244 0.01721 0.019905 0.026203 -0.051419 -0.07428 -0.053435 0.037143 -0.028176 -0.040929 -0.018795 -0.046098 -0.00018 0.058764 0.046154 0.018563 0.017233 0.021588 -0.026634 -0.009496 0.008148 0.004729 0.000266 -0.019749 0.009254 -0.002126 -0.016406 -0.050878 0.008768 -0.000854 0.042081 -0.045303 0.022246 -0.010189 0.02897 0.040041 -0.033849 0.000361 -0.018834 0.04008 -0.001469 -0.055503 0.056945 -0.027206 -0.032195 -0.037731 -0.025124 0.011133 -0.036719 -0.012682 0.009384 -0.010073 0.090437 -0.016207 0.028124 0.014626 -0.02812 -0.040073 -0.041957 -0.001638 0.039449 0.03089 -0.066108 -0.02081 -0.015651 -0.062933 -0.00049 -0.008845 -0.009939 -0.021397 -0.019763 0.043904 0.017749 -0.050098 0.012148 -0.030061 0.004709 -0.000217 0.056555 -0.055294 0.01444 -0.040569 -0.007986 0.049555 0.018666 0.061198 0.052515 0.014468 -0.039218 0.024401 -0.013226 -0.03799 0.002711 -0.02065 -0.024636 -0.00776 0.006034 0.006778 0.030599 0.082573 0.00444 0.029986 -0.008062 0.016897 -0.045426 -0.000166 0.000125 0.024045 -0.004072 -0.019721 -0.02065 0.016812 -0.01222 0.068601 -0.092461 -0.090074 -0.020208 -0.004108 0.057794 0.009673 -0.072006 0.036224 -0.043651 -0.033938 0.05527 -0.000136 -0.027784 -0.005393 -0.09321 -0.031187 0.01047 -0.033162 -0.054815 -0.006237 0.040908 0.001117 0.053635 -0.002603 -0.03303 0.048733 -0.008356 0.010246 -0.036927 0.028537 0.119564 -0.021275 0.037486 -0.081113 -0.066589 -0.050845 -0.021307 -0.021946 -0.019849 0.047402 0.077457 0.029805 0.019429 0.019797 -0.018179 -0.017823 -0.02529 0.005096 -0.046891 -0.040019 0.052755 0.085838 -0.032991 -0.016841 0.008323 0.056636 -0.013422 0.02147 -0.00834 0.067485 -0.009803 0.017958 0.061459 0.01777 -0.000215 0.008082 -0.019496 0.057191 0.012223 -0.049412 -0.071514 0.026604 -0.041929 0.043291 0.080142 -0.012355 0.049576 0.019429 0.022798 -0.042145 -0.007793 0.004989 -0.050545 0.005629 -0.018896 -0.043758 0.01073 -0.045336 -0.024674 0.006612
G 0.015872 -0.01215 -0.033561 -0.035307 0.029521 -0.054169 -0.012339 -0.044302 0.055107 -0.014552 -0.002967 -0.008276 0.004353 -0.020206 0.004826 0.001224 -0.022877 -0.007746 -0.024485 0.037797 -0.025722 -0.010091 0.008921 0.027285 -0.030081 -0.021679 -0.04846 0.052514 -0.031065 0.042318 0.002945 -0.000869 -0.01604 0.018096 0.023428 -0.022504 -0.010667 -0.007345 -0.048423 -0.040127 0.04748 0.053113 -0.02295 -0.010362 -0.026322 -0.030831 0.036187 -0.023764 -0.068347 0.035637 -0.0024 0.047376 0.002446 0.075791 0.008831 -0.005859 -0.052086 -0.031332 0.026049 -0.014302 -0.032246 0.002312 -0.008747 -0.022942 -0.014848 0.027888 -0.021312 0.028673 -0.082987 0.029853 -0.058777 -0.026455 0.005311 0.056839 -0.041169 0.048008 -0.035888 0.010865 -0.036117 -0.024896 0.004293 -0.014565 0.008043 -0.017216 0.034057 -0.027729 0.007709 0.000717 0.03735 -0.00168 -0.002388 -0.055533 0.012978 0.010506 -0.040865 -0.018141 0.046138 0.022499 0.025087 0.031499 -0.049344 -0.077182 -0.055614 0.037877 -0.024351 -0.034998 -0.020925 -0.047528 0.004977 0.057635 0.04762 0.017529 0.011199 0.016309 -0.025957 -0.009148 0.012622 0.014078 0.003194 -0.01359 0.011835 -0.002496 -0.021568 -0.048183 0.005861 -0.004816 0.035918 -0.0414 0.019212 -0.009629 0.027003 0.039303 -0.030126 0.004107 -0.022658 0.043324 -0.002743 -0.059917 0.049453 -0.028272 -0.028984 -0.039796 -0.025536 0.014855 -0.038708 -0.015119 0.007567 -0.008976 0.089382 -0.014338 0.027734 0.016258 -0.027668 -0.0434 -0.035052 -0.010618 0.033273 0.027509 -0.062137 -0.017715 -0.013114 -0.054136 0.004311 -0.011239 -0.003341 -0.024644 -0.018943 0.044264 0.015414 -0.048778 0.023428 -0.036478 0.006635 -0.006961 0.05956 -0.052096 0.017131 -0.034581 -0.002699 0.052178 0.021257 0.060507 0.054166 0.01045 -0.035372 0.017132 -0.006274 -0.039266 0.002561 -0.021485 -0.031309 -0.007835 0.009147 0.010271 0.032928 0.083703 0.006469 0.034904 -0.008785 0.00836 -0.046151 0.004276 -0.000211 0.01824 -0.004908 -0.024812 -0.013552 0.013466 -0.009618 0.064621 -0.084854 -0.086371 -0.025892 0.00365 0.061125 0.012053 -0.069396 0.040728 -0.040936 -0.035392 0.057497 -0.003672 -0.022417 -0.006537 -0.096377 -0.030093 0.008733 -0.037743 -0.058637 -0.002901 0.036961 -0.001083 0.04661 0.004006 -0.037291 0.056176 -0.005796 0.010821 -0.038574 0.035044 0.119741 -0.023951 0.036746 -0.077708 -0.073105 -0.044072 -0.028366 -0.029286 -0.019968 0.040231 0.072235 0.032357 0.014966 0.023446 -0.017817 -0.01526 -0.021002 0.005869 -0.054266 -0.03589 0.047092 0.084654 -0.02907 -0.015834 0.00841 0.050187 -0.006774 0.018706 -0.010442 0.062791 -0.007904 0.013389 0.065005 0.015022 -0.000933 0.00723 -0.01364 0.059798 0.006513 -0.05114 -0.066241 0.031617 -0.040867 0.040289 0.077847 -0.01411 0.043159 0.016012 0.022061 -0.039987 -0.005822 0.006924 -0.044792 0.008661 -0.015056 -0.040922 0.008205 -0.052497 -0.023162 0.006191
F 0.016172 -0.009005 -0.03382 -0.033412 0.025241 -0.045135 -0.010032 -0.0434 0.053038 -0.013877 -0.002881 -0.008639 0.002979 -0.019076 0.009954 0.009054 -0.023842 -0.002681 -0.025594 0.033915 -0.023225 -0.010559 0.008015 0.027431 -0.027351 -0.018811 -0.046326 0.055206 -0.026444 0.046691 0.004195 0.000493 -0.013825 0.015975 0.020133 -0.020365 -0.012815 -0.00755 -0.04235 -0.044239 0.046383 0.047326 -0.026238 -0.015029 -0.024245 -0.034715 0.03599 -0.022358 -0.06586 0.039314 -0.0021 0.051262 -0.000211 0.073162 0.005951 -0.000265 -0.054652 -0.035658 0.025062 -0.011159 -0.034182 0.003508 -0.007078 -0.020116 -0.012833 0.028389 -0.018124 0.0286 -0.084045 0.026776 -0.056906 -0.025765 0.007669 0.051499 -0.036033 0.053335 -0.045737 0.00908 -0.039765 -0.029756 -0.00047 -0.015008 0.010963 -0.015931 0.032791 -0.024034 0.011071 1.7e-05 0.035653 0.002716 -0.000192 -0.048036 0.00893 0.012827 -0.033167 -0.018357 0.042787 0.021135 0.021119 0.027015 -0.045073 -0.078556 -0.049763 0.034666 -0.02329 -0.03826 -0.02444 -0.04408 0.000963 0.055264 0.04201 0.01452 0.011146 0.01517 -0.021799 -0.010944 0.011513 0.01325 0.007272 -0.011718 0.006507 -0.000518 -0.021618 -0.045969 0.01034 -0.002538 0.035924 -0.0409 0.017979 -0.008148 0.0247 0.040453 -0.032257 0.005656 -0.021969 0.04753 -0.004273 -0.057154 0.04313 -0.025149 -0.03287 -0.041553 -0.021148 0.012853 -0.044121 -0.014411 0.013248 -0.017003 0.087901 -0.013671 0.031668 0.018591 -0.03049 -0.038093 -0.028808 -0.009929 0.029681 0.033815 -0.060527 -0.015491 -0.007986 -0.05865 0.004275 -0.010933 -0.000577 -0.02735 -0.020375 0.048364 0.014396 -0.051889 0.020823 -0.035901 0.006797 -0.001179 0.056332 -0.052104 0.014579 -0.034517 -0.003356 0.047716 0.027998 0.057058 0.051382 0.016109 -0.040385 0.013668 -0.00857 -0.042894 0.001059 -0.025609 -0.030654 -0.00352 0.006308 0.009935 0.029735 0.078389 0.01136 0.036694 -0.011279 0.008152 -0.045588 0.000294 0.004462 0.018188 -0.007566 -0.024469 -0.011195 0.010186 -0.013273 0.05827 -0.08853 -0.086302 -0.022994 0.001759 0.061641 0.015674 -0.07092 0.038447 -0.040947 -0.035356 0.059383 -0.007872 -0.026499 -0.00743 -0.094733 -0.03084 0.011286 -0.032674 -0.055257 -0.001437 0.032424 0.001522 0.048852 0.005125 -0.041923 0.0561 0.002137 0.012506 -0.036633 0.029326 0.119048 -0.023842 0.034732 -0.075392 -0.079965 -0.039187 -0.02694 -0.028119 -0.028287 0.039143 0.072094 0.034458 0.013387 0.027716 -0.018856 -0.014689 -0.019135 0.006131 -0.054483 -0.038242 0.042935 0.087236 -0.031378 -0.018419 0.003094 0.044057 -0.010112 0.016981 -0.016175 0.058116 -0.007383 0.015852 0.058912 0.016624 -0.000998 0.004179 -0.011516 0.057653 0.004099 -0.0516 -0.071028 0.033751 -0.048962 0.037681 0.075754 -0.018562 0.04743 0.012679 0.024944 -0.037503 -0.005485 0.004551 -0.043858 0.009698 -0.014111 -0.045701 0.006886 -0.055385 -0.026669 0.006391
I 0.040218 -0.025137 -0.037364 -0.035069 0.028349 -0.065008 -0.007179 -0.038044 0.043464 0.011405 -0.001778 -0.015878 0.011047 -0.025846 0.005381 0.012719 -0.018912 0.005073 -0.022715 0.029913 -0.036358 -0.018524 0.000552 0.021511 -0.038584 -0.013785 -0.054381 0.053946 -0.027099 0.039692 0.010836 0.002638 -0.013523 0.008099 0.014846 -0.010211 -0.014462 -0.016667 -0.053249 -0.042478 0.0461 0.058499 -0.023152 -0.010011 -0.022002 -0.03018 0.032015 -0.019134 -0.06355 0.044551 -0.003869 0.053281 -0.012863 0.05587 0.005605 0.001487 -0.047883 -0.047995 0.014665 -0.0163 -0.042666 -0.002057 -0.017351 -0.030132 -0.024469 0.024097 -0.019667 0.021629 -0.082348 0.042929 -0.063958 -0.02918 -0.004586 0.062452 -0.025314 0.060938 -0.037201 -0.001934 -0.058606 -0.035009 -0.003388 -0.024737 0.009268 -0.012926 0.037635 -0.040457 0.026926 -0.010936 0.02943 -0.002936 -0.000727 -0.053688 -0.00346 0.03301 -0.047882 -0.010058 0.023155 0.020133 0.017376 0.023362 -0.050766 -0.070964 -0.046709 0.038301 -0.032436 -0.041637 -0.017312 -0.047055 -0.000657 0.055726 0.042222 0.017716 0.020791 0.032086 -0.029895 -0.010421 -0.005485 -0.008481 -0.003752 -0.017244 0.008685 -0.000307 9e-05 -0.048124 0.016902 0.004426 0.049424 -0.054096 0.019534 -0.010033 0.036376 0.040006 -0.040156 -0.007042 -0.010607 0.023739 -0.003099 -0.045541 0.06773 -0.025229 -0.036829 -0.035464 -0.030802 0.005729 -0.043261 -0.018381 0.015972 -0.018378 0.093293 -0.018747 0.035987 0.010677 -0.030379 -0.038368 -0.050088 -0.001327 0.041118 0.034621 -0.074504 -0.028192 -0.021378 -0.070623 -0.013437 0.000194 -0.022954 -0.01731 -0.019247 0.042894 0.018914 -0.050859 -0.000781 -0.027693 0.004461 0.007701 0.052672 -0.060106 0.030207 -0.03981 -0.016408 0.054513 0.017855 0.063719 0.058167 0.024942 -0.042102 0.036187 -0.019235 -0.037404 0.000915 -0.028263 -0.009234 -0.007568 0.006118 0.004424 0.030186 0.086744 0.003257 0.025911 -0.011921 0.034326 -0.0385 -0.006873 0.000944 0.022693 -0.000847 -0.009714 -0.02978 0.016664 -0.014281 0.076684 -0.102364 -0.093262 -0.00395 -0.018067 0.062019 0.003469 -0.082414 0.030355 -0.046795 -0.031227 0.054551 0.005836 -0.032832 -0.006534 -0.084111 -0.027633 0.008475 -0.022729 -0.054414 -0.002392 0.038912 0.000139 0.059698 -0.008745 -0.028068 0.040245 -0.005684 0.012852 -0.026557 0.02446 0.116181 -0.019371 0.04632 -0.083898 -0.05457 -0.055557 -0.012137 -0.00911 -0.019392 0.052065 0.079392 0.025147 0.016935 0.016829 -0.01535 -0.021151 -0.031584 -0.002363 -0.03584 -0.047686 0.059646 0.089561 -0.036895 -0.021174 0.00502 0.070593 -0.013267 0.027265 -0.002878 0.063547 -0.015726 0.032128 0.061858 0.017781 0.000698 0.006718 -0.029055 0.045023 0.01791 -0.052454 -0.076486 0.021501 -0.043532 0.041951 0.088673 -0.011923 0.054954 0.028253 0.031805 -0.050947 -0.002289 -0.001994 -0.054065 0.004901 -0.019346 -0.044108 0.007781 -0.037608 -0.019663 -0.001152
H 0.010144 -0.014513 -0.03151 -0.039375 0.031074 -0.049585 -0.013521 -0.050554 0.061041 -0.022736 -0.005417 -0.002665 -9e-06 -0.013529 0.006077 -0.004047 -0.027594 -0.009201 -0.022513 0.039679 -0.023571 -0.007433 0.021799 0.029795 -0.035109 -0.026739 -0.048193 0.059161 -0.035083 0.04062 0.00309 0.000262 -0.013207 0.01897 0.023019 -0.027467 -0.01163 0.000594 -0.052504 -0.03758 0.052282 0.046818 -0.020345 -0.003464 -0.031772 -0.029426 0.031016 -0.023362 -0.064791 0.035897 -0.001371 0.044894 0.001012 0.080856 0.01296 -0.006748 -0.054419 -0.026341 0.030504 -0.015505 -0.030185 0.005008 -0.008298 -0.019676 -0.016844 0.026817 -0.027522 0.025764 -0.083029 0.023917 -0.063507 -0.023643 0.005451 0.055673 -0.043252 0.045312 -0.036176 0.01367 -0.03161 -0.025279 0.00816 -0.013109 0.008075 -0.016711 0.034452 -0.02399 -0.001646 0.003382 0.038874 0.000111 -0.001932 -0.053761 0.012475 0.005119 -0.045177 -0.018487 0.054303 0.023836 0.027753 0.025983 -0.054085 -0.074405 -0.05792 0.040731 -0.025468 -0.040589 -0.016324 -0.046887 -0.000397 0.060093 0.052083 0.016763 0.00845 0.010627 -0.028229 -0.009058 0.020669 0.019383 0.000824 -0.021237 0.015356 -0.009667 -0.024825 -0.05223 0.010564 -0.004777 0.03032 -0.036357 0.022866 -0.002751 0.022891 0.037469 -0.022823 0.011347 -0.021571 0.052913 0.000764 -0.059879 0.04645 -0.031233 -0.031751 -0.040027 -0.020129 0.012963 -0.033869 -0.021027 0.003934 -0.001196 0.083315 -0.019515 0.022456 0.022144 -0.030568 -0.044697 -0.034668 -0.006184 0.037326 0.030611 -0.059426 -0.013769 -0.011973 -0.054385 0.01349 -0.015784 -2e-06 -0.027196 -0.020861 0.052371 0.015299 -0.054316 0.031317 -0.037116 0.006541 -0.008091 0.0638 -0.050658 0.007739 -0.035792 -0.000358 0.048435 0.016306 0.060504 0.055716 0.012006 -0.033141 0.011935 -0.002893 -0.045454 0.007765 -0.021909 -0.03513 -0.010439 0.009243 0.008184 0.039076 0.081246 0.011007 0.035302 -0.005009 0.012364 -0.050359 0.007724 -0.002346 0.022791 -0.008467 -0.029812 -0.007066 0.016148 -0.003938 0.062294 -0.083804 -0.085613 -0.033866 0.01005 0.058884 0.013508 -0.065339 0.041684 -0.044099 -0.036337 0.063047 -0.009762 -0.020141 -0.0029 -0.105592 -0.026917 0.016102 -0.041628 -0.057049 -0.005175 0.043929 0.005477 0.043546 0.004728 -0.036611 0.057117 -0.005787 0.00936 -0.04152 0.035541 0.120342 -0.022512 0.032798 -0.080238 -0.075052 -0.042154 -0.029813 -0.038297 -0.012996 0.044542 0.072355 0.032407 0.010005 0.026864 -0.01603 -0.019828 -0.018844 0.00894 -0.055096 -0.033105 0.035109 0.076109 -0.027231 -0.013554 0.013727 0.043384 -0.015899 0.011766 -0.010413 0.063901 -0.012215 0.002806 0.063523 0.014391 0.005245 0.011368 -0.005324 0.06604 0.00666 -0.054116 -0.064339 0.033561 -0.03597 0.040321 0.068543 -0.002463 0.043276 0.015751 0.014332 -0.038566 -0.011158 0.006356 -0.043733 0.003122 -0.014427 -0.040634 0.009871 -0.057022 -0.027081 0.010471
K 0.001395 -0.012173 -0.033958 -0.041984 0.029603 -0.057291 -0.014469 -0.057589 0.072168 -0.031903 0.007936 0.000936 -2.8e-05 -0.013495 0.009627 -0.015504 -0.032788 -0.0203 -0.026377 0.050903 -0.024245 -0.001183 0.02703 0.029324 -0.040401 -0.033762 -0.05084 0.063673 -0.035287 0.045146 7.6e-05 0.003435 -0.01551 0.024846 0.023175 -0.033144 -0.003838 -0.002687 -0.056894 -0.029751 0.049427 0.051897 -0.023105 -0.003887 -0.037324 -0.02567 0.02668 -0.019854 -0.060112 0.032269 0.002216 0.039469 -0.002609 0.087487 0.016584 -0.020111 -0.055262 -0.01982 0.031024 -0.018658 -0.03243 0.004288 -0.007201 -0.016926 -0.012521 0.036001 -0.034024 0.030804 -0.08341 0.028422 -0.067332 -0.018825 0.015799 0.05274 -0.047224 0.036905 -0.035591 0.018344 -0.030042 -0.028743 0.014733 -0.003429 0.004941 -0.026169 0.044582 -0.019873 0.001256 0.011232 0.044545 0.002354 0.002188 -0.053375 0.015817 0.007564 -0.053169 -0.016099 0.060804 0.027802 0.037477 0.031537 -0.054804 -0.078129 -0.06066 0.041375 -0.030584 -0.043885 -0.015955 -0.04401 -0.004424 0.066915 0.052372 0.014969 0.008621 0.000598 -0.031508 -0.005883 0.027171 0.034789 0.011487 -0.034728 0.018623 -0.009682 -0.039196 -0.052528 0.013364 -0.005938 0.019334 -0.03748 0.016413 -0.000987 0.024486 0.032049 -0.015135 0.017553 -0.0221 0.063057 -0.002985 -0.047672 0.044014 -0.030242 -0.028056 -0.042876 -0.017544 0.0099 -0.028018 -0.023483 0.00215 0.012785 0.07715 -0.015674 0.018921 0.033299 -0.025708 -0.050968 -0.043124 -0.007183 0.028392 0.03082 -0.05865 -0.005046 -0.008296 -0.054951 0.017607 -0.019851 0.002622 -0.032992 -0.021094 0.057262 0.015794 -0.054557 0.030181 -0.028517 0.012236 -0.005165 0.069951 -0.053254 0.00442 -0.039116 0.001111 0.053194 0.016397 0.068718 0.059779 0.002671 -0.041926 0.005902 -0.004931 -0.041393 0.007459 -0.013795 -0.036852 -0.009475 0.007024 -0.004214 0.036576 0.078699 0.012544 0.040739 0.003695 0.009037 -0.05702 0.014999 0.011875 0.027273 -0.015148 -0.032646 -0.001273 0.01837 -0.010143 0.061023 -0.083847 -0.096535 -0.039238 0.011421 0.059055 0.018276 -0.065327 0.040734 -0.048905 -0.040598 0.06983 -0.011055 -0.020221 -0.006418 -0.11145 -0.031422 0.018804 -0.051727 -0.063153 -0.011483 0.051117 0.003091 0.046597 0.009824 -0.03545 0.062964 -0.014588 0.005952 -0.048049 0.031751 0.130474 -0.026019 0.040524 -0.079048 -0.083657 -0.046152 -0.032837 -0.047541 -0.008159 0.043932 0.065447 0.031095 0.01849 0.026572 -0.016016 -0.0239 -0.023029 0.009948 -0.059381 -0.01952 0.022453 0.05847 -0.028287 -0.004092 0.029527 0.036988 -0.013091 0.008657 -0.006895 0.05783 -0.011404 -0.008421 0.070244 0.006834 0.008305 0.005417 0.007954 0.072853 0.011567 -0.059145 -0.060786 0.039173 -0.038147 0.03677 0.063834 -0.003114 0.042994 0.014705 0.013629 -0.033809 -0.009081 0.016679 -0.036205 0.005457 -0.00743 -0.045554 0.009468 -0.061826 -0.034922 0.007094
J 0.00519 -0.015856 -0.02256 -0.039875 0.027848 -0.06056 -0.016358 -0.055725 0.060696 -0.022486 0.001169 -0.004517 -0.007856 -0.007297 0.007133 -0.00679 -0.032643 -0.012256 -0.026186 0.043284 -0.021536 -0.013976 0.019581 0.025101 -0.032756 -0.03269 -0.050333 0.061738 -0.032239 0.043741 0.00258 -0.009084 -0.01568 0.021875 0.019969 -0.029508 -0.009091 -0.008109 -0.049102 -0.039898 0.043355 0.044066 -0.025661 -0.007666 -0.034749 -0.030498 0.032356 -0.025252 -0.062445 0.031757 0.000272 0.050637 -0.003999 0.080313 0.011702 -0.007454 -0.058013 -0.022433 0.027057 -0.014649 -0.0223 0.004474 -0.005706 -0.017263 -0.012271 0.030626 -0.025057 0.023002 -0.076962 0.01805 -0.060299 -0.022063 0.015799 0.048457 -0.039207 0.0509 -0.037972 0.015593 -0.035581 -0.030855 0.006816 -0.009978 0.010609 -0.025605 0.036373 -0.028304 0.010355 0.005124 0.037737 0.007661 0.002031 -0.050129 0.015896 0.001744 -0.041718 -0.023947 0.049101 0.023547 0.029266 0.034134 -0.052599 -0.08126 -0.056556 0.036746 -0.024045 -0.039657 -0.025404 -0.041474 -0.001735 0.056637 0.045364 0.015176 0.0066 0.010851 -0.024332 -0.007499 0.019879 0.019644 0.006541 -0.018411 0.003001 -0.000305 -0.029914 -0.045035 0.01153 -0.00207 0.035603 -0.038016 0.018668 -0.008463 0.017698 0.032715 -0.022177 0.008062 -0.021238 0.047232 -0.005825 -0.057008 0.044506 -0.025378 -0.032398 -0.038302 -0.024475 0.014938 -0.040771 -0.020993 0.003472 0.004959 0.083389 -0.016067 0.023868 0.015414 -0.026184 -0.043003 -0.027534 -0.009985 0.03151 0.033396 -0.054376 -0.005375 -0.009933 -0.055651 0.011241 -0.019805 -0.000833 -0.025661 -0.011824 0.054334 0.01605 -0.051449 0.029909 -0.038509 0.009653 -0.008257 0.056712 -0.044873 0.005337 -0.034649 0.001021 0.052311 0.028238 0.061977 0.054637 0.015623 -0.037674 0.00265 -0.005845 -0.040367 0.006435 -0.026611 -0.039386 -0.004458 0.012781 0.001149 0.028381 0.075752 0.01962 0.035141 -0.005383 0.002033 -0.053385 0.008192 0.004623 0.018824 -0.005921 -0.026402 -0.006413 0.016502 -0.009949 0.057341 -0.076118 -0.089364 -0.031498 0.007384 0.056 0.011502 -0.07277 0.034881 -0.040296 -0.039463 0.055728 -0.016866 -0.022729 -0.00436 -0.105146 -0.021303 0.012952 -0.040223 -0.060641 -0.005333 0.038934 0.001338 0.044201 0.006629 -0.030412 0.059569 -0.002628 0.00859 -0.044842 0.038218 0.122854 -0.020981 0.034801 -0.062056 -0.081043 -0.042887 -0.027078 -0.034145 -0.022834 0.042055 0.064335 0.036931 0.018546 0.026613 -0.014757 -0.022723 -0.019376 0.001884 -0.063811 -0.02452 0.04256 0.091419 -0.026642 -0.013951 0.008445 0.043792 -0.012776 0.011702 -0.01536 0.058885 -0.00395 0.00958 0.06215 0.007541 0.006734 0.001563 -0.00049 0.064848 0.00382 -0.057235 -0.066545 0.033445 -0.039206 0.037605 0.075784 -0.007247 0.044018 0.016566 0.009762 -0.039428 -0.009989 0.01486 -0.043937 0.008782 -0.006775 -0.039308 0.012053 -0.058645 -0.023488 0.009975
M 0.009506 -0.013748 -0.027956 -0.036177 0.026857 -0.053866 -0.011401 -0.050196 0.057386 -0.019653 -0.003154 -0.010024 -0.002641 -0.012727 0.006468 0.000175 -0.024177 -0.005976 -0.022891 0.036364 -0.020265 -0.014047 0.013791 0.026178 -0.029468 -0.024105 -0.047895 0.055808 -0.030824 0.042084 0.001688 -0.005502 -0.015499 0.02182 0.021053 -0.024603 -0.009671 -0.006329 -0.046651 -0.040573 0.046866 0.048224 -0.025695 -0.011693 -0.028697 -0.032899 0.031082 -0.025072 -0.066788 0.033093 -0.002396 0.048315 -0.001572 0.076027 0.006594 -0.000932 -0.053817 -0.026963 0.026763 -0.01146 -0.027272 0.004309 -0.008342 -0.019294 -0.013366 0.027336 -0.022204 0.026213 -0.080849 0.023861 -0.058926 -0.022473 0.007546 0.049374 -0.038708 0.05107 -0.03942 0.012343 -0.03653 -0.02803 0.002233 -0.014389 0.008734 -0.021553 0.032719 -0.029345 0.010562 0.002654 0.034485 0.002265 -0.001561 -0.053056 0.012777 0.008811 -0.038424 -0.020849 0.047426 0.02159 0.024123 0.030209 -0.051139 -0.078217 -0.053972 0.037621 -0.02147 -0.035951 -0.02524 -0.043307 0.001623 0.055829 0.04325 0.01702 0.008673 0.012601 -0.025486 -0.006249 0.012472 0.016342 0.001995 -0.013276 0.00751 -0.001958 -0.024118 -0.045931 0.01063 -0.00105 0.036124 -0.038556 0.016401 -0.008588 0.023539 0.034709 -0.027135 0.006811 -0.021544 0.046041 -0.004481 -0.058503 0.046232 -0.027209 -0.033197 -0.037508 -0.024402 0.014292 -0.043127 -0.018749 0.009585 -0.005124 0.090053 -0.013605 0.027225 0.014889 -0.027816 -0.044722 -0.031787 -0.009128 0.033938 0.03297 -0.058608 -0.013425 -0.012131 -0.05521 0.007616 -0.013394 -0.005613 -0.023833 -0.013902 0.050374 0.0159 -0.05214 0.030227 -0.038078 0.006357 -0.005547 0.059401 -0.047805 0.014684 -0.034286 -0.001042 0.051921 0.027581 0.060974 0.053843 0.015522 -0.035637 0.013257 -0.005965 -0.042249 0.003358 -0.026057 -0.033808 -0.005522 0.009387 0.004494 0.031942 0.082186 0.01237 0.035105 -0.00894 0.008028 -0.048928 0.006396 0.001351 0.016626 -0.003515 -0.025917 -0.010036 0.015866 -0.010915 0.062224 -0.081336 -0.086236 -0.025995 0.006422 0.058722 0.011126 -0.068803 0.040746 -0.039361 -0.03501 0.05484 -0.010511 -0.022843 -0.00494 -0.099293 -0.024819 0.012553 -0.035155 -0.060663 -0.00318 0.037251 0.003098 0.047043 0.004998 -0.035958 0.055998 -0.00206 0.01227 -0.041867 0.03682 0.120129 -0.022658 0.037034 -0.070526 -0.077479 -0.042274 -0.028564 -0.03154 -0.024634 0.041472 0.069803 0.032358 0.014712 0.027202 -0.017564 -0.019831 -0.020585 0.00372 -0.060732 -0.033772 0.044905 0.090129 -0.028636 -0.018791 0.00701 0.049211 -0.010352 0.014338 -0.012304 0.061383 -0.005794 0.015745 0.065338 0.00981 0.001531 0.006562 -0.009713 0.060161 0.003971 -0.054237 -0.068301 0.029791 -0.040509 0.038194 0.078053 -0.007919 0.048073 0.018567 0.017489 -0.040027 -0.008337 0.007549 -0.043696 0.00947 -0.01096 -0.040538 0.00852 -0.054613 -0.022039 0.007717
L 0.018673 -0.013006 -0.031966 -0.038266 0.032857 -0.065845 -0.007432 -0.052328 0.050993 -0.011397 -0.003069 -0.009124 -0.003655 -0.014236 -0.001575 0.001059 -0.022186 -0.003137 -0.020398 0.033063 -0.027916 -0.020988 0.011056 0.022067 -0.038423 -0.020305 -0.051403 0.055939 -0.032924 0.036648 0.005026 -0.003127 -0.01449 0.021045 0.021213 -0.021715 -0.011315 -0.007603 -0.051249 -0.039067 0.043569 0.051144 -0.026123 -0.009766 -0.028947 -0.032166 0.030138 -0.029073 -0.069136 0.033712 -0.004284 0.045676 -0.00092 0.073422 0.003641 -0.001155 -0.051945 -0.030801 0.017208 -0.015812 -0.031802 -0.003411 -0.007854 -0.019095 -0.016755 0.023652 -0.02273 0.021172 -0.082712 0.028485 -0.061614 -0.023349 0.006536 0.05062 -0.033676 0.05548 -0.037997 0.010157 -0.040506 -0.031815 0.002469 -0.020868 0.007817 -0.021427 0.039766 -0.033366 0.017595 -0.001528 0.027235 -0.00453 -0.00568 -0.0566 0.006762 0.013887 -0.043591 -0.020361 0.043429 0.019735 0.027544 0.026577 -0.050002 -0.082537 -0.055661 0.036068 -0.02537 -0.039704 -0.018899 -0.04569 0.003743 0.054082 0.044722 0.019485 0.008657 0.019356 -0.027272 -0.00455 0.007185 0.007421 0.000488 -0.012547 0.013017 -0.003965 -0.009274 -0.048338 0.014011 -0.001168 0.045422 -0.040136 0.014607 -0.009854 0.026888 0.037338 -0.032243 0.004244 -0.017181 0.037667 -0.004274 -0.060129 0.056578 -0.02561 -0.038559 -0.039916 -0.026105 0.014073 -0.041861 -0.018744 0.00915 -0.01046 0.093261 -0.018698 0.03181 0.015293 -0.028255 -0.046356 -0.038567 -0.004206 0.035652 0.034352 -0.065102 -0.015756 -0.014769 -0.05676 -0.000682 -0.012156 -0.010699 -0.01713 -0.013038 0.046158 0.012879 -0.049644 0.022366 -0.032242 0.004482 -0.000663 0.061983 -0.050098 0.023163 -0.031805 -0.007712 0.053694 0.018571 0.065549 0.05763 0.021322 -0.038736 0.023979 -0.011712 -0.043024 -0.000372 -0.029067 -0.027042 -0.004791 0.009853 0.005106 0.033044 0.084632 0.009722 0.029539 -0.009594 0.016369 -0.045029 0.004914 -0.000143 0.021964 -0.003041 -0.025617 -0.018432 0.02323 -0.010033 0.069569 -0.088508 -0.088812 -0.018997 -0.000847 0.061938 0.002622 -0.073186 0.040456 -0.039217 -0.031074 0.056328 -0.004389 -0.02753 -0.003129 -0.093026 -0.025734 0.009298 -0.031325 -0.061023 -0.004588 0.041075 0.002684 0.052796 -0.000836 -0.027385 0.053367 -0.002001 0.015813 -0.03993 0.035334 0.121349 -0.021471 0.039948 -0.073018 -0.070053 -0.048331 -0.019151 -0.024899 -0.019465 0.046783 0.074707 0.030794 0.017194 0.025012 -0.014341 -0.022575 -0.025799 0.004785 -0.054989 -0.033789 0.049579 0.092458 -0.031185 -0.022108 0.0073 0.059773 -0.014627 0.018092 -0.006555 0.065548 -0.007856 0.022254 0.062644 0.012626 -0.00143 0.00627 -0.011752 0.053785 0.011212 -0.050734 -0.071522 0.030132 -0.033541 0.034529 0.086191 -0.003143 0.053323 0.019683 0.01989 -0.043105 -0.004236 0.001945 -0.04869 0.005777 -0.009807 -0.041653 0.009394 -0.048065 -0.02217 0.008802
O 0.037912 -0.023872 -0.036958 -0.037663 0.031461 -0.074088 -0.005089 -0.044857 0.043239 0.006953 -0.001619 -0.013055 0.004524 -0.022528 -0.000182 0.006987 -0.020043 0.00267 -0.020808 0.029254 -0.036069 -0.027773 0.003749 0.016749 -0.044613 -0.01695 -0.057017 0.055211 -0.029711 0.033721 0.011564 0.000525 -0.012226 0.014064 0.016957 -0.011455 -0.013881 -0.016346 -0.056061 -0.040089 0.043658 0.059066 -0.023643 -0.006768 -0.025324 -0.028747 0.027861 -0.02424 -0.065199 0.03976 -0.005126 0.048491 -0.01298 0.057057 0.003792 0.001439 -0.046901 -0.042896 0.009729 -0.017768 -0.040522 -0.007663 -0.012579 -0.025852 -0.026659 0.022594 -0.022352 0.018155 -0.084121 0.041958 -0.064682 -0.027282 -0.001839 0.058346 -0.024617 0.06179 -0.035722 0.00146 -0.056458 -0.036001 -0.00231 -0.027634 0.008443 -0.019811 0.043026 -0.041708 0.03209 -0.011315 0.02603 -0.005389 -0.002325 -0.058917 -0.004508 0.03001 -0.052009 -0.014303 0.027822 0.017604 0.023323 0.02324 -0.054369 -0.074703 -0.052617 0.035504 -0.033502 -0.041954 -0.013863 -0.046504 -0.000231 0.056001 0.044598 0.019939 0.016972 0.033051 -0.031376 -0.006856 -0.005189 -0.009274 -0.004532 -0.018238 0.011253 -0.002407 0.006975 -0.049112 0.020825 0.004307 0.054198 -0.051081 0.01589 -0.011907 0.035389 0.035397 -0.038376 -0.004815 -0.008525 0.020183 -0.004858 -0.049557 0.071339 -0.022246 -0.040559 -0.037399 -0.03209 0.009542 -0.042066 -0.020621 0.012565 -0.013345 0.094022 -0.021159 0.036092 0.009963 -0.02878 -0.043697 -0.053212 0.002014 0.043921 0.034871 -0.076374 -0.025803 -0.023753 -0.067228 -0.014161 -0.003871 -0.025527 -0.01134 -0.0138 0.042652 0.017123 -0.049418 0.003787 -0.027372 0.002971 0.007208 0.057003 -0.057304 0.033261 -0.037638 -0.016246 0.055751 0.014147 0.067484 0.061603 0.026121 -0.042223 0.038679 -0.020599 -0.039118 -1.9e-05 -0.030514 -0.010215 -0.005374 0.010402 0.000141 0.032713 0.08956 0.003896 0.023988 -0.010402 0.034757 -0.039453 -0.001462 0.000446 0.026074 0.001028 -0.012364 -0.031078 0.024592 -0.014467 0.079482 -0.100257 -0.094628 -0.003263 -0.01506 0.062563 -0.003136 -0.083588 0.035019 -0.044961 -0.029224 0.053118 0.005343 -0.035922 -0.004598 -0.084867 -0.025278 0.006923 -0.021979 -0.0589 -0.005549 0.042975 0.001312 0.061149 -0.01248 -0.018573 0.041275 -0.007673 0.016743 -0.031138 0.027673 0.119138 -0.018044 0.047359 -0.080456 -0.050496 -0.058073 -0.009373 -0.008966 -0.014801 0.05651 0.08065 0.022255 0.019873 0.017424 -0.012795 -0.025661 -0.032246 -0.000611 -0.039711 -0.042531 0.059694 0.094469 -0.036397 -0.024373 0.008134 0.078175 -0.015655 0.025705 0.001431 0.067309 -0.013029 0.035266 0.063315 0.016713 -0.001365 0.007136 -0.024431 0.043012 0.019656 -0.049561 -0.077325 0.020244 -0.034582 0.037387 0.093883 -0.003592 0.059027 0.028394 0.026028 -0.051396 -0.001036 -0.002288 -0.053289 0.0038 -0.014093 -0.041151 0.009433 -0.035347 -0.018907 0.003841
N 0.029725 -0.023309 -0.031961 -0.039581 0.031548 -0.072846 -0.005743 -0.053448 0.048272 -0.000406 0.000217 -0.012074 -0.001267 -0.01391 0.00225 0.005934 -0.022485 0.001182 -0.02017 0.031017 -0.033643 -0.024447 0.010869 0.017449 -0.043794 -0.019207 -0.057165 0.059536 -0.030504 0.035984 0.009974 -0.002113 -0.011309 0.016918 0.016055 -0.016719 -0.013773 -0.013044 -0.054216 -0.038585 0.044783 0.055167 -0.025706 -0.008119 -0.030553 -0.029918 0.025069 -0.02495 -0.063591 0.037348 -0.004174 0.049544 -0.015389 0.06019 0.003777 0.001062 -0.04853 -0.036965 0.012335 -0.017024 -0.038502 -0.007072 -0.013136 -0.021771 -0.02295 0.025151 -0.025659 0.015701 -0.082708 0.035761 -0.06316 -0.022377 0.001544 0.05343 -0.024851 0.062047 -0.038974 0.002181 -0.05626 -0.040289 -0.002151 -0.025126 0.01037 -0.022616 0.044018 -0.040602 0.030507 -0.006013 0.026174 0.000276 -0.003707 -0.05478 -0.0039 0.027275 -0.050452 -0.016988 0.030936 0.019554 0.022992 0.021337 -0.053779 -0.075093 -0.05147 0.036635 -0.031174 -0.042953 -0.016949 -0.042942 -0.003411 0.054667 0.043417 0.019045 0.014382 0.025316 -0.032191 -0.004921 -0.001663 -0.004585 -0.003537 -0.021817 0.011104 -0.003313 0.001808 -0.046485 0.024426 0.005742 0.04876 -0.048397 0.012291 -0.008183 0.031599 0.033711 -0.033903 0.001379 -0.008575 0.027567 -0.005198 -0.045985 0.065048 -0.025235 -0.043135 -0.039108 -0.027936 0.006742 -0.042284 -0.023638 0.014076 -0.01029 0.090607 -0.023376 0.035191 0.014043 -0.02869 -0.044373 -0.049388 0.001962 0.041029 0.039173 -0.070199 -0.022249 -0.022319 -0.066985 -0.008349 -0.004667 -0.023291 -0.014257 -0.011673 0.049192 0.014837 -0.052181 0.010188 -0.028965 0.003468 0.00622 0.058557 -0.052453 0.028784 -0.037526 -0.015987 0.056838 0.016551 0.067631 0.06009 0.027592 -0.043358 0.031776 -0.020381 -0.043214 0.002489 -0.033175 -0.014281 -0.003783 0.008234 -0.002168 0.03257 0.086245 0.008566 0.025468 -0.008785 0.033843 -0.040976 0.001209 0.003579 0.02486 -0.002251 -0.015897 -0.024797 0.024386 -0.013913 0.076095 -0.097581 -0.093422 -0.007626 -0.00962 0.060613 -0.001844 -0.083172 0.034231 -0.046119 -0.029187 0.058361 -0.001016 -0.032878 -0.00286 -0.090869 -0.020616 0.010546 -0.024002 -0.058467 -0.004777 0.044471 0.005351 0.059806 -0.0085 -0.019902 0.043542 -0.003014 0.015641 -0.034142 0.027656 0.120523 -0.019038 0.047296 -0.076623 -0.059693 -0.055924 -0.012179 -0.015911 -0.016939 0.054491 0.07812 0.025029 0.018784 0.021762 -0.012109 -0.027962 -0.03323 -0.001714 -0.04352 -0.041111 0.052897 0.092384 -0.033157 -0.023047 0.010753 0.068927 -0.019709 0.021223 -1.5e-05 0.062558 -0.012631 0.031765 0.061177 0.014492 0.002693 0.005738 -0.016507 0.047761 0.017445 -0.054353 -0.077273 0.025109 -0.035812 0.036701 0.089228 0.001339 0.060759 0.02779 0.023353 -0.048626 -0.00343 -0.001257 -0.051236 0.003612 -0.010703 -0.042123 0.011391 -0.043022 -0.021187 0.005535
Q 0.010509 -0.022771 -0.025069 -0.033066 0.019379 -0.056732 -0.017582 -0.04675 0.059587 -0.019039 -0.003164 -0.009838 0.000933 -0.014132 0.011732 0.000732 -0.025802 -0.008139 -0.023878 0.038978 -0.017527 -0.017513 0.013118 0.030197 -0.026512 -0.03155 -0.053758 0.055457 -0.033507 0.039302 0.002123 -0.009764 -0.016946 0.020669 0.015003 -0.027111 -0.011156 -0.006931 -0.050814 -0.043358 0.043 0.05218 -0.024049 -0.005739 -0.023348 -0.029619 0.029495 -0.023719 -0.067946 0.029484 -0.004117 0.048205 -0.007666 0.066728 0.010084 0.007083 -0.054397 -0.027818 0.022878 -0.005708 -0.026117 0.010243 -0.010038 -0.025536 -0.024328 0.023698 -0.024719 0.020351 -0.074214 0.027228 -0.05306 -0.022144 -0.000777 0.060379 -0.03946 0.047972 -0.031284 0.010845 -0.041311 -0.023157 0.001646 -0.016811 0.008068 -0.022603 0.026922 -0.035594 0.010036 -0.002443 0.034961 0.001836 -0.001249 -0.05195 0.016592 0.011767 -0.041147 -0.018872 0.045608 0.018896 0.024714 0.029558 -0.061787 -0.074573 -0.054419 0.039614 -0.023945 -0.029792 -0.017835 -0.042767 -0.003911 0.062797 0.04436 0.015167 0.012266 0.015229 -0.028903 -0.003277 0.010061 0.018409 -0.011208 -0.016237 0.005462 4e-05 -0.02755 -0.049406 0.011339 -0.001189 0.034589 -0.046963 0.022171 -0.013432 0.026978 0.027472 -0.028854 0.002274 -0.021561 0.036134 -0.005402 -0.056409 0.051171 -0.030348 -0.03742 -0.031734 -0.032686 0.014332 -0.044207 -0.020935 0.009494 -0.004867 0.089889 -0.011442 0.021564 0.003075 -0.02677 -0.047865 -0.036803 -0.010594 0.043651 0.028313 -0.064631 -0.020282 -0.016437 -0.058595 0.008765 -0.013562 -0.013142 -0.019602 -0.014975 0.048972 0.019718 -0.051951 0.029852 -0.039655 0.008754 -0.009333 0.057841 -0.043063 0.015403 -0.03758 -0.0005 0.048582 0.026389 0.061992 0.058808 0.015668 -0.034826 0.018545 -0.00831 -0.040415 0.002994 -0.029268 -0.027541 -0.009348 0.012455 0.006412 0.032558 0.087838 0.01409 0.035754 -0.006676 0.017268 -0.051673 0.006628 -0.006582 0.018695 0.001586 -0.020291 -0.011592 0.014625 -0.008369 0.065471 -0.075297 -0.090071 -0.023438 -0.001122 0.051573 0.007925 -0.070297 0.035925 -0.036424 -0.035401 0.045545 -0.010247 -0.02755 -0.004056 -0.094078 -0.021884 0.010793 -0.034997 -0.059533 -0.001366 0.044599 -0.002007 0.041915 -0.005545 -0.029976 0.053613 -0.008795 0.008398 -0.038861 0.036676 0.115233 -0.022197 0.033729 -0.072842 -0.06654 -0.043453 -0.026555 -0.021454 -0.029332 0.049793 0.067222 0.029304 0.014954 0.022673 -0.013371 -0.02466 -0.022495 -0.002505 -0.059846 -0.036626 0.057343 0.094266 -0.037258 -0.020539 0.00369 0.060885 -0.008454 0.012754 -0.012871 0.061992 -0.005029 0.025781 0.07213 0.008037 0.002573 0.004025 -0.023615 0.05494 0.003022 -0.060537 -0.06661 0.025275 -0.036543 0.042765 0.082111 -0.000961 0.04497 0.024384 0.014376 -0.048939 -0.008903 0.006688 -0.043519 0.006907 -0.016333 -0.031254 0.001466 -0.050259 -0.011929 -0.000884
P 0.015693 -0.017819 -0.029848 -0.03524 0.021241 -0.051459 -0.011776 -0.047477 0.052615 -0.015701 -0.004895 -0.013697 0.001257 -0.017047 0.00808 0.006873 -0.022967 -0.002695 -0.022508 0.036812 -0.019708 -0.014781 0.007739 0.027874 -0.025305 -0.020593 -0.048353 0.052686 -0.029921 0.044864 0.003495 -0.005575 -0.018741 0.017098 0.020947 -0.024218 -0.012027 -0.006226 -0.048443 -0.040094 0.047343 0.051057 -0.028167 -0.010455 -0.025455 -0.035434 0.030895 -0.025728 -0.067082 0.033907 -0.001917 0.05145 -0.003297 0.070537 0.006603 0.001905 -0.052838 -0.036397 0.024701 -0.006839 -0.029738 0.002371 -0.0104 -0.026593 -0.014932 0.026 -0.020146 0.024983 -0.079741 0.025877 -0.056026 -0.026795 -0.000727 0.049878 -0.038601 0.052004 -0.036617 0.008503 -0.039332 -0.028859 0.000515 -0.016039 0.007516 -0.017911 0.026228 -0.03027 0.010562 -0.001173 0.03625 0.002162 -0.000445 -0.051912 0.013533 0.009481 -0.034779 -0.017721 0.040817 0.02152 0.017764 0.031602 -0.050223 -0.075735 -0.053587 0.037156 -0.019784 -0.031356 -0.022224 -0.044622 0.002441 0.058258 0.040183 0.01449 0.011418 0.018884 -0.025782 -0.01039 0.008264 0.013307 0.001856 -0.011082 0.010315 -0.000687 -0.021412 -0.043419 0.014294 -0.00159 0.037131 -0.039006 0.019215 -0.003151 0.024988 0.035757 -0.028359 -2.6e-05 -0.021566 0.042061 -0.002984 -0.061105 0.043679 -0.030782 -0.033882 -0.036748 -0.023727 0.010965 -0.043848 -0.01343 0.010247 -0.014567 0.093655 -0.012156 0.030252 0.009238 -0.031386 -0.039108 -0.029932 -0.010524 0.036337 0.031286 -0.062285 -0.016456 -0.012452 -0.057046 0.004651 -0.00548 -0.00961 -0.022856 -0.017218 0.047525 0.017171 -0.052864 0.024364 -0.038214 0.004271 -0.00447 0.057026 -0.049159 0.016851 -0.033118 -0.002714 0.049367 0.027261 0.05685 0.052429 0.01346 -0.032693 0.019462 -0.007526 -0.042656 0.001139 -0.02818 -0.028209 -0.003915 0.010137 0.007792 0.030202 0.080829 0.008134 0.033278 -0.011692 0.011119 -0.046185 0.000737 -0.005 0.014909 -0.005857 -0.026362 -0.009288 0.015227 -0.01222 0.064835 -0.081782 -0.081662 -0.018563 0.001558 0.05569 0.011825 -0.068137 0.039162 -0.042307 -0.035338 0.05058 -0.005666 -0.022039 -0.006435 -0.090643 -0.0256 0.008347 -0.0345 -0.059318 0.000559 0.035398 0.000422 0.04403 0.004481 -0.039416 0.054063 -0.002687 0.013567 -0.035645 0.032271 0.11556 -0.023245 0.03286 -0.073801 -0.072361 -0.041846 -0.02811 -0.027153 -0.029028 0.040274 0.075457 0.031643 0.012584 0.02525 -0.018661 -0.016305 -0.022537 0.001842 -0.055879 -0.043618 0.050494 0.089477 -0.031182 -0.022609 0.00371 0.05236 -0.008799 0.013418 -0.013336 0.060307 -0.007884 0.022842 0.066905 0.010555 0.000171 0.008167 -0.017437 0.056427 0.004534 -0.056021 -0.067489 0.028435 -0.048601 0.039124 0.078469 -0.012148 0.047488 0.02123 0.020897 -0.044859 -0.006437 0.002446 -0.04393 0.006235 -0.014556 -0.04133 0.003819 -0.05395 -0.021083 0.004173
S 0.018803 -0.01713 -0.034393 -0.034621 0.029214 -0.055882 -0.009485 -0.049236 0.053545 -0.012365 -0.002289 -0.006802 0.001021 -0.016378 0.008537 0.000658 -0.02418 -0.003804 -0.022511 0.034933 -0.027446 -0.014887 0.013674 0.025189 -0.036596 -0.02195 -0.050247 0.055173 -0.030594 0.039852 0.00735 -0.000505 -0.012414 0.019592 0.019916 -0.02101 -0.012285 -0.00637 -0.051647 -0.038766 0.048496 0.05208 -0.025406 -0.00947 -0.028737 -0.030658 0.029642 -0.023154 -0.062829 0.037598 -0.002998 0.045206 -0.005821 0.072356 0.007037 -0.003176 -0.052617 -0.034947 0.021655 -0.013231 -0.035361 -0.001239 -0.009751 -0.018572 -0.017033 0.027632 -0.024505 0.025135 -0.082488 0.029375 -0.061743 -0.025105 0.004131 0.052491 -0.035261 0.054249 -0.041417 0.008619 -0.043356 -0.032008 0.00271 -0.015818 0.008973 -0.019642 0.036237 -0.030067 0.016138 -0.000536 0.033291 0.001788 -0.000743 -0.052155 0.006746 0.01668 -0.04338 -0.016504 0.043096 0.020482 0.024031 0.025844 -0.052013 -0.078364 -0.052028 0.038188 -0.028446 -0.040416 -0.019133 -0.043922 -0.002112 0.058123 0.045528 0.016534 0.011175 0.016336 -0.026439 -0.00672 0.011618 0.011485 -0.000226 -0.019578 0.009624 -0.002644 -0.017164 -0.0474 0.01371 0.001243 0.039149 -0.040835 0.017122 -0.006264 0.026266 0.037072 -0.029469 0.005778 -0.016839 0.042646 -0.002285 -0.050163 0.053417 -0.026021 -0.034272 -0.038801 -0.022755 0.011595 -0.039937 -0.019773 0.009616 -0.006773 0.087207 -0.017542 0.028296 0.019747 -0.029397 -0.044641 -0.038521 -0.004093 0.03463 0.034106 -0.065516 -0.017807 -0.013847 -0.058651 0.003025 -0.009165 -0.009464 -0.022283 -0.017077 0.050811 0.014566 -0.053453 0.019594 -0.030554 0.00663 0.002319 0.060808 -0.053047 0.016241 -0.03732 -0.005306 0.052401 0.020896 0.063604 0.056771 0.018732 -0.041179 0.020219 -0.011627 -0.041785 0.002737 -0.025475 -0.02368 -0.004923 0.00799 0.001279 0.032701 0.083007 0.008553 0.031195 -0.006519 0.016941 -0.046035 0.004835 0.003824 0.02326 -0.006953 -0.02268 -0.016646 0.017979 -0.012556 0.066004 -0.090099 -0.089511 -0.020805 -0.00084 0.06032 0.009002 -0.07402 0.039435 -0.042573 -0.033303 0.058547 -0.004614 -0.027155 -0.005911 -0.097449 -0.026268 0.012619 -0.033649 -0.05757 -0.004811 0.041538 0.002727 0.051805 -0.000681 -0.033293 0.050182 -0.003902 0.011689 -0.038533 0.030931 0.120248 -0.020176 0.039987 -0.078292 -0.070758 -0.048616 -0.022493 -0.027888 -0.019796 0.047015 0.075481 0.029728 0.017921 0.02652 -0.017746 -0.023194 -0.023555 0.005046 -0.051422 -0.036437 0.045051 0.084717 -0.030368 -0.016622 0.009428 0.053272 -0.01588 0.016854 -0.006876 0.063967 -0.010945 0.016846 0.063099 0.015843 0.002703 0.00806 -0.012159 0.057375 0.010829 -0.051605 -0.071683 0.027659 -0.040601 0.035997 0.080069 -0.008499 0.050385 0.019756 0.020369 -0.041778 -0.006891 0.00412 -0.045213 0.00582 -0.012152 -0.042438 0.009083 -0.050709 -0.02512 0.006283
R 0.02654 -0.018925 -0.034348 -0.0394 0.031647 -0.068207 -0.007093 -0.052285 0.047265 -0.002741 -0.000663 -0.009981 -0.002704 -0.015678 0.002323 0.004504 -0.021849 7.3e-05 -0.021914 0.03205 -0.029795 -0.023747 0.00985 0.018316 -0.040939 -0.019176 -0.053825 0.056766 -0.030615 0.036432 0.008111 -0.00261 -0.011768 0.017546 0.018794 -0.017277 -0.013339 -0.010789 -0.052639 -0.040917 0.042741 0.054525 -0.02576 -0.010959 -0.029431 -0.031554 0.030471 -0.026421 -0.065731 0.038941 -0.003299 0.048986 -0.007563 0.064492 0.00216 0.001583 -0.050998 -0.036162 0.014126 -0.015942 -0.037357 -0.005184 -0.009302 -0.018987 -0.020381 0.023491 -0.023617 0.020036 -0.082444 0.034133 -0.065043 -0.023964 0.004423 0.052834 -0.029195 0.06077 -0.039915 0.003937 -0.05095 -0.035854 -0.001248 -0.02225 0.01031 -0.020427 0.041513 -0.037162 0.026657 -0.004279 0.027166 -0.001485 -0.004078 -0.054666 0.000282 0.022617 -0.047052 -0.018457 0.034991 0.01636 0.021923 0.023892 -0.05314 -0.080415 -0.05298 0.036198 -0.028803 -0.042617 -0.018042 -0.042842 -0.000103 0.05344 0.044614 0.019513 0.012153 0.025487 -0.026572 -0.006451 0.00295 -0.00036 -0.002087 -0.0164 0.008476 -0.002082 -0.003305 -0.047956 0.017273 0.002669 0.048808 -0.043416 0.014985 -0.011142 0.029109 0.035469 -0.034527 0.002012 -0.012874 0.032301 -0.005994 -0.051325 0.06086 -0.022762 -0.04049 -0.039532 -0.027345 0.00985 -0.043114 -0.019731 0.011913 -0.0118 0.091594 -0.019684 0.032521 0.015391 -0.02771 -0.044361 -0.043061 0.000385 0.038618 0.037508 -0.068955 -0.02058 -0.017573 -0.065006 -0.005302 -0.007832 -0.016484 -0.016178 -0.012454 0.046849 0.014007 -0.049696 0.012341 -0.028242 0.003921 0.00418 0.057973 -0.053009 0.026221 -0.036118 -0.011608 0.053285 0.017537 0.066336 0.056073 0.024945 -0.042994 0.026759 -0.016784 -0.040581 0.000567 -0.030122 -0.019197 -0.003388 0.00996 0.000654 0.029703 0.086501 0.008684 0.026388 -0.009242 0.023029 -0.043502 0.000694 0.001925 0.025167 -0.002125 -0.018124 -0.023426 0.02415 -0.014202 0.071099 -0.095039 -0.090989 -0.012744 -0.006274 0.060828 -0.0009 -0.079688 0.038297 -0.041808 -0.030266 0.057389 -0.001878 -0.032806 -0.0036 -0.090834 -0.02459 0.007861 -0.026358 -0.057131 -0.005479 0.040451 0.002786 0.057842 -0.007218 -0.023296 0.047424 -0.002939 0.014533 -0.03638 0.029928 0.12066 -0.018476 0.040493 -0.075856 -0.06385 -0.054191 -0.013856 -0.017499 -0.019664 0.052645 0.079088 0.027829 0.020385 0.023212 -0.013824 -0.025675 -0.02791 0.001977 -0.050206 -0.03778 0.052573 0.096313 -0.034062 -0.021564 0.007818 0.065326 -0.018288 0.019657 -0.004328 0.065587 -0.009113 0.028944 0.060031 0.015263 -0.0015 0.005706 -0.015145 0.049599 0.013302 -0.049544 -0.077111 0.025359 -0.036111 0.03666 0.089037 -0.004575 0.057756 0.02279 0.022075 -0.044916 -0.003792 0.000726 -0.051182 0.004654 -0.010547 -0.04196 0.010963 -0.042926 -0.02183 0.008069
U 0.031947 -0.022718 -0.029236 -0.038399 0.029754 -0.072836 -0.006818 -0.052407 0.046113 0.005121 0.000496 -0.010786 0.000751 -0.016273 0.004315 0.011258 -0.022435 0.003704 -0.023341 0.031823 -0.035478 -0.025037 0.005523 0.021962 -0.039884 -0.019009 -0.058286 0.057824 -0.027843 0.038666 0.009978 -0.00132 -0.012573 0.016577 0.012613 -0.016649 -0.014348 -0.018635 -0.052252 -0.041092 0.044026 0.053592 -0.029581 -0.010712 -0.026803 -0.032606 0.024137 -0.024445 -0.067508 0.036723 -0.003994 0.053992 -0.015382 0.05851 0.003014 0.004699 -0.044323 -0.042716 0.010461 -0.011583 -0.040791 -0.004491 -0.013068 -0.024431 -0.022493 0.025975 -0.021333 0.016213 -0.083984 0.037309 -0.057943 -0.023001 0.003839 0.052609 -0.023747 0.063151 -0.042331 0.003373 -0.056871 -0.040898 -0.007468 -0.026281 0.012278 -0.020006 0.04221 -0.041579 0.032249 -0.006748 0.02301 -0.002281 -0.002343 -0.055846 -0.002191 0.023692 -0.047475 -0.01615 0.023757 0.021769 0.02019 0.023734 -0.050542 -0.078547 -0.049703 0.036231 -0.030365 -0.043516 -0.018366 -0.042813 -0.002017 0.054617 0.038675 0.019072 0.01465 0.030255 -0.029319 -0.007082 -0.003005 -0.004121 -0.001547 -0.017879 0.008611 0.002633 -0.002439 -0.044632 0.027308 0.006668 0.051179 -0.051031 0.01385 -0.008369 0.030356 0.034905 -0.035625 -0.002529 -0.007731 0.023701 -0.006411 -0.043406 0.063204 -0.024375 -0.046904 -0.037685 -0.027658 0.004865 -0.045432 -0.025676 0.015577 -0.015975 0.093803 -0.018494 0.035264 0.010819 -0.02989 -0.042895 -0.044093 -0.002077 0.037677 0.039375 -0.073377 -0.020038 -0.021973 -0.069874 -0.009053 -0.001062 -0.025672 -0.014612 -0.010817 0.049306 0.017753 -0.055428 0.007071 -0.025902 0.007367 0.009323 0.053076 -0.051333 0.030044 -0.033638 -0.013232 0.054282 0.019734 0.065689 0.058355 0.03107 -0.046748 0.030087 -0.021766 -0.04198 -0.000163 -0.03593 -0.010708 -0.002883 0.011989 -0.003284 0.030785 0.083248 0.011056 0.024304 -0.011301 0.033053 -0.040018 -0.000141 0.006789 0.022037 -0.002605 -0.012925 -0.025274 0.023097 -0.016397 0.072815 -0.098093 -0.092752 -0.002964 -0.016566 0.060874 -0.001606 -0.084582 0.031497 -0.045091 -0.030722 0.054188 -0.002975 -0.033065 -0.005659 -0.081235 -0.020223 0.012659 -0.021727 -0.057918 -0.001939 0.039989 0.003896 0.057913 -0.00787 -0.022079 0.044215 -0.000692 0.01747 -0.0287 0.025775 0.116795 -0.017483 0.049331 -0.072598 -0.060776 -0.05376 -0.011231 -0.012182 -0.020428 0.050679 0.075021 0.027186 0.018132 0.018728 -0.015614 -0.02957 -0.032535 -0.005636 -0.041608 -0.041492 0.054491 0.094936 -0.036865 -0.023225 0.004973 0.069364 -0.017446 0.023401 -0.004354 0.058237 -0.014719 0.037636 0.060778 0.016608 0.003186 0.001151 -0.017797 0.044437 0.016543 -0.057525 -0.076364 0.025142 -0.043231 0.035619 0.091301 -0.001725 0.061605 0.027383 0.02578 -0.050163 -0.004669 -0.002495 -0.051119 0.002615 -0.011682 -0.044075 0.008796 -0.043784 -0.018619 0.001289
T 0.024178 -0.020249 -0.032393 -0.034625 0.025992 -0.061547 -0.010718 -0.042494 0.052773 -0.008881 -0.00531 -0.012492 0.005162 -0.022289 0.006441 0.002486 -0.022438 -0.004182 -0.02351 0.034958 -0.026007 -0.018212 0.008317 0.024569 -0.033389 -0.021599 -0.051363 0.053407 -0.029559 0.041149 0.004972 -0.000462 -0.01481 0.018812 0.018135 -0.017211 -0.010881 -0.011575 -0.052314 -0.039839 0.047219 0.055559 -0.022977 -0.007357 -0.024851 -0.030095 0.02879 -0.023197 -0.064299 0.036685 -0.005229 0.046645 -0.007688 0.066816 0.007916 -0.000805 -0.05182 -0.036535 0.019767 -0.01111 -0.03422 0.002413 -0.012475 -0.025675 -0.020663 0.025641 -0.021969 0.026726 -0.081021 0.034774 -0.05998 -0.027544 0.001711 0.05711 -0.035457 0.052385 -0.033747 0.008953 -0.043947 -0.027694 0.003966 -0.020008 0.007335 -0.01954 0.034594 -0.034254 0.014367 -0.003475 0.032508 -0.00392 -0.000434 -0.054584 0.007034 0.018007 -0.04492 -0.016198 0.039612 0.018687 0.022593 0.02693 -0.053622 -0.074945 -0.053859 0.038125 -0.02719 -0.034076 -0.017066 -0.045801 -0.001306 0.061005 0.043199 0.017561 0.01535 0.02205 -0.029017 -0.008638 0.005463 0.008017 -0.004438 -0.016171 0.009029 -0.002175 -0.013613 -0.048504 0.011446 0.000551 0.040736 -0.048169 0.019712 -0.008552 0.031573 0.033805 -0.030455 -0.000916 -0.02025 0.033816 -0.002443 -0.054667 0.057172 -0.02714 -0.033348 -0.035577 -0.030483 0.013053 -0.040509 -0.016514 0.011338 -0.007478 0.089679 -0.015179 0.028349 0.012397 -0.030144 -0.044928 -0.044103 -0.006647 0.039169 0.027887 -0.067002 -0.021189 -0.017947 -0.060327 -6e-05 -0.009679 -0.016484 -0.019103 -0.018927 0.04566 0.019216 -0.053002 0.019899 -0.033356 0.00666 -0.000224 0.057453 -0.052689 0.021108 -0.036141 -0.005638 0.052285 0.020799 0.064177 0.060578 0.015537 -0.037787 0.024361 -0.011478 -0.039931 -0.000422 -0.023969 -0.021919 -0.006795 0.011432 0.003196 0.034659 0.084971 0.007624 0.030682 -0.008353 0.02179 -0.047161 0.003538 -0.002009 0.022319 1.9e-05 -0.017518 -0.019027 0.017798 -0.011094 0.070073 -0.089561 -0.091494 -0.015837 -0.004333 0.058962 0.009031 -0.071735 0.038425 -0.043814 -0.034495 0.050381 -0.000607 -0.02835 -0.005245 -0.0927 -0.02769 0.011225 -0.031775 -0.058757 -0.005035 0.041745 -8e-06 0.050852 -0.002841 -0.031157 0.050516 -0.008261 0.01314 -0.036185 0.031823 0.116236 -0.020897 0.040933 -0.07822 -0.059532 -0.049451 -0.023225 -0.020226 -0.019319 0.048509 0.075359 0.028512 0.015414 0.021498 -0.016829 -0.02074 -0.026044 0.004025 -0.049101 -0.039461 0.052012 0.086754 -0.032596 -0.020895 0.008069 0.062957 -0.008351 0.018416 -0.004848 0.065048 -0.010052 0.0233 0.068024 0.012993 -0.000476 0.00732 -0.020902 0.053662 0.011132 -0.054818 -0.069993 0.023548 -0.040355 0.039752 0.082494 -0.008744 0.048039 0.024095 0.022018 -0.049076 -0.004547 0.002111 -0.046872 0.006224 -0.016726 -0.039266 0.00424 -0.04375 -0.018245 0.002078
W 0.015038 -0.004195 -0.043891 -0.039918 0.035676 -0.021913 -0.009007 -0.041902 0.058124 -0.028227 -0.010264 0.005244 0.005139 -0.022711 0.02147 -0.010482 -0.026719 -0.009296 -0.018643 0.037588 -0.034946 -0.000807 0.021561 0.039944 -0.039605 -0.01637 -0.04351 0.055439 -0.029718 0.04268 0.004277 0.008297 -0.011334 0.022549 0.027179 -0.020224 -0.013071 0.009228 -0.051317 -0.041353 0.056381 0.052117 -0.02022 -0.008691 -0.032489 -0.03347 0.039265 -0.01993 -0.059524 0.035698 -0.011809 0.036945 0.004899 0.093538 0.010639 -0.009158 -0.059788 -0.031721 0.031503 -0.016822 -0.04532 0.008457 -0.003624 -0.005953 -0.018009 0.033698 -0.030218 0.046258 -0.089036 0.029625 -0.068029 -0.028505 0.011339 0.054506 -0.048352 0.046339 -0.049509 0.017883 -0.029597 -0.026226 0.012855 -0.011283 0.013269 -0.009837 0.039507 -0.019004 -0.011298 0.004732 0.043594 0.004581 0.000358 -0.049622 0.011358 0.004159 -0.043864 -0.011002 0.05938 0.020123 0.02795 0.02056 -0.046028 -0.083162 -0.053818 0.041947 -0.027735 -0.048553 -0.018639 -0.047529 -0.004358 0.063388 0.058622 0.019344 0.012795 0.004728 -0.027558 -0.006778 0.033821 0.025845 0.000616 -0.02425 0.013643 -0.00707 -0.031265 -0.056009 0.001406 -0.000239 0.032928 -0.033972 0.019781 -0.006304 0.023015 0.048216 -0.033382 0.025644 -0.026075 0.062519 0.008678 -0.049888 0.048985 -0.02769 -0.023356 -0.054053 -0.012167 0.014424 -0.029926 -0.014153 0.003308 -0.004092 0.07934 -0.033163 0.024168 0.04404 -0.030712 -0.040862 -0.037648 -0.003806 0.026931 0.028293 -0.056125 -0.019304 -0.004361 -0.048503 0.018893 -0.023673 0.013403 -0.029894 -0.029055 0.055415 0.016662 -0.060684 0.025525 -0.027396 0.010228 0.005727 0.064923 -0.069442 0.001164 -0.04056 0.003733 0.03404 0.014331 0.057018 0.056301 0.015258 -0.049903 0.00986 -0.008893 -0.046517 -0.003207 -0.009352 -0.035089 -0.009226 0.003446 0.002872 0.035665 0.076622 0.01116 0.03576 0.000214 0.008984 -0.047408 0.011047 0.005345 0.036685 -0.019414 -0.038095 -0.014308 0.012225 0.000451 0.054471 -0.091807 -0.092551 -0.046015 0.002638 0.066486 0.023273 -0.063493 0.043306 -0.046957 -0.034592 0.070209 -0.002212 -0.022371 -0.000185 -0.110432 -0.036602 0.023874 -0.045749 -0.049787 -0.007884 0.040886 0.011515 0.054534 0.013925 -0.050683 0.059993 -0.000409 0.00388 -0.037206 0.025153 0.121051 -0.020892 0.033088 -0.090303 -0.08395 -0.040178 -0.037557 -0.041464 -0.01069 0.038873 0.076068 0.037583 0.018578 0.030312 -0.024554 -0.022005 -0.017113 0.028054 -0.047773 -0.024135 0.018235 0.066269 -0.031953 -0.001305 0.014518 0.034216 -0.020699 0.01877 -0.013963 0.075723 -0.014516 -0.012434 0.056503 0.030331 0.00061 0.003429 -0.006694 0.072698 0.006438 -0.046417 -0.06527 0.038397 -0.032996 0.037566 0.060739 -0.021275 0.045884 -0.002772 0.009952 -0.031527 -0.012667 0.004337 -0.047009 0.004936 -0.019222 -0.050692 0.009795 -0.061881 -0.043601 0.013509
V 0.012596 -0.00821 -0.029737 -0.035247 0.028847 -0.065162 -0.009991 -0.050194 0.055815 -0.019861 0.001947 -0.008585 -0.001279 -0.014195 -0.000281 0.003856 -0.025395 -0.005447 -0.026332 0.039677 -0.02036 -0.013965 0.007808 0.024808 -0.029598 -0.02714 -0.048869 0.055504 -0.032484 0.043441 -0.001356 -0.005704 -0.016372 0.024086 0.022807 -0.023574 -0.00734 -0.012015 -0.046291 -0.041538 0.04211 0.052203 -0.028926 -0.013527 -0.024088 -0.032247 0.03111 -0.027417 -0.073359 0.030279 0.001132 0.046923 -0.000713 0.072618 0.004612 0.000624 -0.050886 -0.030546 0.015664 -0.008173 -0.027438 -0.001238 -0.009179 -0.02283 -0.013185 0.02569 -0.019229 0.025125 -0.082327 0.028946 -0.05826 -0.02057 0.00769 0.049749 -0.037329 0.050846 -0.035069 0.012265 -0.036986 -0.025046 0.000648 -0.01762 0.00822 -0.023853 0.036065 -0.029966 0.015102 0.004211 0.026488 -0.003289 -0.003809 -0.053054 0.016145 0.009965 -0.039002 -0.024348 0.045221 0.021147 0.027113 0.033023 -0.048435 -0.087505 -0.054119 0.036255 -0.023332 -0.028086 -0.022244 -0.045086 0.004514 0.05249 0.044853 0.018006 0.004032 0.016251 -0.02382 -0.006722 0.005797 0.018998 0.003773 -0.004872 0.008099 -0.001374 -0.01864 -0.048434 0.010244 -0.006076 0.040474 -0.039569 0.015263 -0.011678 0.024509 0.035365 -0.030176 0.004313 -0.020416 0.042723 -0.010163 -0.060818 0.046157 -0.025039 -0.035686 -0.036752 -0.026632 0.017292 -0.044257 -0.019788 0.010683 -0.010302 0.091094 -0.007561 0.028988 0.015357 -0.02744 -0.04727 -0.031498 -0.014871 0.030709 0.031937 -0.065518 -0.016686 -0.008319 -0.05305 0.003649 -0.009115 -0.004255 -0.022701 -0.015428 0.046084 0.015219 -0.045794 0.026565 -0.037865 0.010335 -0.004645 0.061151 -0.047561 0.024667 -0.028357 -0.001345 0.055738 0.01897 0.065295 0.05666 0.012478 -0.036263 0.015926 -0.004824 -0.043015 -0.000579 -0.026896 -0.030953 -0.001835 0.011762 0.008964 0.031144 0.085263 0.010157 0.034519 -0.008562 0.011999 -0.049766 0.005962 -0.001846 0.015078 -0.003225 -0.028291 -0.014455 0.017982 -0.010704 0.063388 -0.08153 -0.081118 -0.020271 0.006074 0.061145 0.008764 -0.069479 0.045699 -0.03708 -0.030737 0.053721 -0.007817 -0.023863 -0.008148 -0.089919 -0.026203 0.005068 -0.035785 -0.058767 -0.001762 0.033709 -0.006876 0.043144 0.001601 -0.032807 0.058056 -0.004753 0.013643 -0.036957 0.038304 0.12214 -0.022233 0.034353 -0.070569 -0.070595 -0.042699 -0.02456 -0.026278 -0.026293 0.039234 0.069884 0.031297 0.015078 0.026492 -0.018904 -0.018797 -0.021791 0.002418 -0.062703 -0.032032 0.051438 0.091226 -0.03099 -0.022278 0.00358 0.055088 -0.002865 0.014111 -0.009173 0.057387 -0.001025 0.01977 0.069149 0.007022 -0.002961 0.006734 -0.010777 0.052378 0.006948 -0.052761 -0.066744 0.03266 -0.043233 0.032777 0.088946 -0.01247 0.046166 0.01847 0.024055 -0.045107 -0.001435 0.004844 -0.04024 0.010757 -0.010988 -0.037263 0.000664 -0.048798 -0.019766 0.002797
Y 0.006465 -0.025907 -0.024111 -0.040591 0.025045 -0.069401 -0.01662 -0.057968 0.064566 -0.022611 -0.00426 -0.01157 -0.005812 -0.016412 0.010264 -0.010919 -0.035545 -0.016963 -0.024966 0.044983 -0.020901 -0.016824 0.020715 0.025662 -0.032209 -0.033229 -0.058144 0.060547 -0.031089 0.047461 0.00321 -0.003644 -0.013844 0.022815 0.017957 -0.029391 -0.005375 -0.010214 -0.058485 -0.03444 0.044988 0.043276 -0.021423 -0.00394 -0.036025 -0.029317 0.026555 -0.022783 -0.061146 0.032418 0.001066 0.048278 -0.008157 0.074842 0.017898 -0.011915 -0.055372 -0.022453 0.023933 -0.019187 -0.021745 0.007257 -0.009469 -0.023165 -0.019223 0.028951 -0.029606 0.020874 -0.078986 0.025692 -0.055743 -0.02072 0.01189 0.054486 -0.037014 0.046959 -0.029634 0.015525 -0.038817 -0.032222 0.01447 -0.012681 0.005934 -0.028044 0.038263 -0.036236 0.012651 0.007237 0.03796 0.005484 0.003067 -0.052408 0.008015 0.012535 -0.050707 -0.021487 0.055973 0.023285 0.03456 0.034628 -0.055504 -0.073245 -0.06007 0.036445 -0.02665 -0.039163 -0.024994 -0.042004 -0.007653 0.070999 0.042213 0.017221 0.014579 0.005553 -0.033392 -0.004507 0.016672 0.021833 0.005405 -0.021129 0.009483 -0.007433 -0.030168 -0.048486 0.015394 0.001867 0.032208 -0.045919 0.019997 -0.003354 0.024347 0.026153 -0.02052 0.003501 -0.017699 0.041561 -0.001663 -0.051998 0.050375 -0.029402 -0.033295 -0.031171 -0.030575 0.012334 -0.034498 -0.020293 0.005256 0.007185 0.081924 -0.018398 0.021701 0.012188 -0.029009 -0.050641 -0.045227 -0.008637 0.036687 0.029101 -0.058274 -0.009828 -0.023258 -0.060841 0.007734 -0.020246 -0.013094 -0.024741 -0.015427 0.055579 0.01831 -0.059119 0.030137 -0.036402 0.007464 -0.007064 0.059961 -0.044798 0.005284 -0.038168 8.7e-05 0.055832 0.023585 0.062835 0.06318 0.013808 -0.037164 0.008446 -0.005655 -0.040397 0.012069 -0.027255 -0.03622 -0.009004 0.01339 -0.002535 0.03601 0.07618 0.016028 0.034492 -0.003013 0.011657 -0.056068 0.009876 0.003767 0.022822 7.2e-05 -0.017754 -0.005948 0.016626 -0.008822 0.061723 -0.077196 -0.099227 -0.029134 0.00555 0.052236 0.010277 -0.068055 0.037095 -0.040322 -0.04251 0.053446 -0.01375 -0.025032 -0.002324 -0.110302 -0.024588 0.016756 -0.044036 -0.068649 -0.007405 0.051912 0.001463 0.04717 -0.000441 -0.030263 0.056397 -0.01137 0.00729 -0.04804 0.035127 0.119783 -0.027875 0.043533 -0.071339 -0.071859 -0.047943 -0.031252 -0.036707 -0.015118 0.052692 0.060387 0.034213 0.016492 0.021924 -0.012281 -0.025762 -0.022118 0.000546 -0.061383 -0.028241 0.042183 0.078846 -0.030711 -0.008156 0.017406 0.056228 -0.011373 0.010127 -0.004746 0.06159 -0.006821 0.010358 0.067966 0.004796 0.00625 0.002213 -0.009271 0.064443 0.007444 -0.064543 -0.070087 0.026486 -0.035334 0.04248 0.07192 0.001971 0.046432 0.027855 0.011081 -0.042175 -0.012543 0.018647 -0.044119 0.007532 -0.006177 -0.036124 0.006897 -0.057244 -0.019221 0.005316
X 0.035037 -0.017802 -0.036619 -0.029489 0.012418 -0.057317 -0.01363 -0.02252 0.051601 -0.001149 -0.00778 -0.014527 0.014561 -0.038132 0.014441 0.007435 -0.020475 -0.00565 -0.024245 0.035651 -0.026753 -0.013972 0.004289 0.02911 -0.024757 -0.015333 -0.051642 0.054115 -0.020341 0.046659 0.008924 0.003525 -0.013324 0.014754 0.025442 -0.011941 -0.011355 -0.018595 -0.056332 -0.049231 0.05099 0.056944 -0.02033 -0.007392 -0.02543 -0.026222 0.029738 -0.01472 -0.064811 0.038917 -0.009949 0.046178 -0.010398 0.062621 0.010531 0.001205 -0.050585 -0.046773 0.017675 -0.011645 -0.032299 0.00725 -0.019305 -0.029351 -0.029605 0.026744 -0.00951 0.033157 -0.076232 0.041477 -0.056581 -0.035964 -0.002183 0.063827 -0.039208 0.053063 -0.026492 0.005539 -0.042887 -0.027491 0.006528 -0.015946 0.010321 -0.014118 0.027084 -0.039069 0.006102 -0.006566 0.028371 -0.005664 0.007612 -0.046054 0.008394 0.022547 -0.0398 -0.0152 0.032411 0.010916 0.019051 0.034259 -0.047105 -0.075282 -0.050042 0.031617 -0.031136 -0.024161 -0.022556 -0.049303 -0.000373 0.071317 0.042217 0.017994 0.023191 0.022542 -0.022874 -0.009888 0.005648 0.013256 -0.004651 -0.0161 0.003159 0.003592 -0.017374 -0.045837 0.002577 0.007927 0.037312 -0.060625 0.029053 -0.008005 0.039288 0.035532 -0.040367 -0.001564 -0.021777 0.028098 0.003681 -0.049729 0.068583 -0.023742 -0.020907 -0.029898 -0.038058 0.021867 -0.032318 -0.01423 0.009179 -0.011798 0.091809 -0.015803 0.028906 0.00657 -0.038992 -0.040006 -0.044324 -0.005558 0.040581 0.019218 -0.074737 -0.028568 -0.02184 -0.059566 -0.00262 -0.009483 -0.013396 -0.020794 -0.032636 0.046971 0.025874 -0.05009 0.013956 -0.032185 0.009607 0.002558 0.054558 -0.062385 0.014232 -0.040021 -0.006268 0.050169 0.026433 0.059059 0.066154 0.011268 -0.040425 0.026445 -0.013562 -0.03506 -0.004155 -0.017744 -0.020787 -0.01128 0.008592 0.005232 0.031336 0.084064 0.011502 0.035582 -0.012328 0.025031 -0.051902 0.007003 -0.009597 0.029286 0.006879 -0.005432 -0.031884 0.007135 -0.006913 0.076835 -0.095481 -0.093113 -0.013201 -0.018264 0.060892 0.018188 -0.069509 0.032402 -0.042118 -0.036908 0.049386 0.01108 -0.03066 -0.00691 -0.086896 -0.032382 0.016153 -0.0322 -0.054269 -0.003707 0.038574 -0.004441 0.05845 -0.005843 -0.045249 0.045529 -0.009707 0.009579 -0.032662 0.026275 0.113496 -0.027597 0.041768 -0.086066 -0.050204 -0.049562 -0.024945 -0.016791 -0.021888 0.049442 0.07309 0.030595 0.025246 0.014549 -0.023445 -0.025304 -0.020458 0.004674 -0.049463 -0.040877 0.061977 0.083654 -0.038878 -0.020319 -0.000456 0.067057 -0.001331 0.017933 -0.001072 0.066875 -0.006741 0.016217 0.069528 0.015947 -0.001837 0.003578 -0.033993 0.046568 0.015739 -0.053388 -0.071649 0.023551 -0.052992 0.045822 0.090322 -0.022383 0.04707 0.021728 0.027508 -0.05042 -0.000877 0.005294 -0.050208 0.00606 -0.022473 -0.040073 -0.001741 -0.040147 -0.009661 -0.004219
Z 0.006389 -0.014738 -0.026637 -0.037459 0.02667 -0.071562 -0.014175 -0.059643 0.063561 -0.021517 0.006564 -0.004392 -0.006987 -0.012145 0.002869 -0.004034 -0.025759 -0.010293 -0.025165 0.046246 -0.023902 -0.016551 0.016712 0.025353 -0.03568 -0.035575 -0.055912 0.058653 -0.031761 0.041432 0.003113 -0.005868 -0.015861 0.026705 0.023207 -0.030165 -0.008018 -0.010106 -0.056746 -0.036441 0.040828 0.050385 -0.026211 -0.007533 -0.03266 -0.029134 0.025562 -0.027757 -0.06923 0.034392 0.003752 0.047642 -0.003976 0.075831 0.009157 -0.007692 -0.051858 -0.023208 0.022751 -0.013971 -0.026971 -9.4e-05 -0.008138 -0.018023 -0.012475 0.029885 -0.02514 0.017726 -0.082923 0.025699 -0.061869 -0.020743 0.013184 0.050809 -0.038622 0.049804 -0.034437 0.012915 -0.034967 -0.034703 0.00649 -0.011671 0.006437 -0.028623 0.037924 -0.029195 0.015629 0.005705 0.033024 -0.000234 -0.001536 -0.058588 0.015752 0.011976 -0.045262 -0.023213 0.047427 0.025557 0.03231 0.037139 -0.057968 -0.085256 -0.059916 0.038084 -0.026414 -0.035735 -0.021191 -0.044412 0.001545 0.05915 0.047517 0.01715 0.00807 0.012162 -0.028013 -0.009537 0.01599 0.019054 0.005464 -0.021478 0.01146 -0.002742 -0.025559 -0.046194 0.012242 -0.006921 0.03236 -0.038637 0.016473 -0.006339 0.026495 0.030266 -0.017685 0.007319 -0.019002 0.043409 -0.006937 -0.053863 0.050772 -0.02553 -0.035426 -0.038479 -0.025998 0.012182 -0.040249 -0.027028 0.004812 0.000749 0.08933 -0.011349 0.025037 0.013731 -0.024081 -0.049111 -0.030376 -0.009414 0.031973 0.031438 -0.064309 -0.007131 -0.01688 -0.057215 0.006476 -0.014295 -0.004046 -0.025651 -0.010751 0.051688 0.01706 -0.048086 0.02825 -0.036082 0.01117 -0.010347 0.063407 -0.04502 0.017665 -0.030824 -0.001732 0.056909 0.022462 0.06768 0.05669 0.012875 -0.036053 0.011222 -0.009893 -0.038739 0.004539 -0.028739 -0.035224 -0.005039 0.014377 0.000845 0.031542 0.081706 0.013328 0.03776 -0.006441 0.008228 -0.052996 0.009341 0.00223 0.018024 -0.004643 -0.028687 -0.009142 0.023452 -0.011094 0.064888 -0.081854 -0.090601 -0.028329 0.009733 0.057399 0.003984 -0.073131 0.042411 -0.039324 -0.03553 0.059418 -0.010428 -0.023351 -0.008561 -0.099596 -0.020945 0.008303 -0.036568 -0.062411 -0.005312 0.04232 -0.004004 0.045085 0.001452 -0.025354 0.055646 -0.007171 0.008225 -0.0432 0.040147 0.127343 -0.023022 0.039093 -0.06814 -0.077321 -0.047668 -0.027006 -0.033633 -0.014003 0.045223 0.067594 0.031434 0.019259 0.02701 -0.011682 -0.024132 -0.02046 -0.000926 -0.064576 -0.023829 0.044982 0.086764 -0.030117 -0.014712 0.014196 0.051918 -0.009096 0.012146 -0.007826 0.057886 -0.006212 0.016419 0.068921 0.005285 0.003925 0.002965 -7.5e-05 0.061912 0.006985 -0.05597 -0.066117 0.034744 -0.039673 0.036037 0.081486 -0.00219 0.043342 0.020012 0.015753 -0.042927 -0.005651 0.006925 -0.041406 0.008588 -0.007544 -0.037121 0.011176 -0.053237 -0.019157 0.005977
a 0.003547 -0.021359 -0.0255 -0.026295 0.007597 -0.045297 -0.027965 -0.054771 0.058935 -0.024391 -0.000193 -0.008577 0.000316 -0.016254 0.01285 0.000483 -0.021728 -0.01061 -0.022724 0.036057 -0.004966 -0.013686 0.017938 0.023593 -0.02361 -0.035624 -0.039239 0.047719 -0.040361 0.047694 0.000351 -0.01894 -0.02474 0.010781 0.013211 -0.03153 -0.010837 -0.005049 -0.042409 -0.028327 0.052673 0.048065 -0.020972 0.000382 -0.020136 -0.036052 0.023793 -0.025308 -0.060855 0.03145 0.012285 0.052443 0.001821 0.071135 0.010967 -0.002856 -0.0509 -0.036548 0.029883 0.004922 -0.022803 0.010029 -0.006712 -0.029381 -0.01518 0.021647 -0.034499 0.012123 -0.069534 0.018686 -0.048495 -0.030742 -0.012868 0.055106 -0.051364 0.041091 -0.015295 0.013082 -0.025269 -0.013977 0.002595 -0.000217 0.004527 -0.013193 0.002104 -0.012341 0.000407 -0.005217 0.050444 -0.00065 0.001877 -0.051485 0.033632 8e-05 -0.032626 -0.016634 0.047324 0.014145 0.014452 0.030398 -0.064567 -0.0675 -0.064577 0.03024 -0.011349 -0.010702 -0.006586 -0.045776 0.001557 0.074016 0.04027 0.018698 0.010008 0.018236 -0.02546 -0.019687 0.015859 0.019695 -0.007366 -0.024815 0.012333 0.007643 -0.036912 -0.048355 0.004069 -0.009649 0.028454 -0.033503 0.041015 0.00253 0.02267 0.03097 -0.010073 -0.008266 -0.027586 0.054832 -0.009375 -0.076829 0.033772 -0.028625 -0.031481 -0.022677 -0.017527 0.008254 -0.041376 -0.00625 0.008623 -0.012227 0.090177 -5.2e-05 0.016055 -0.005035 -0.027789 -0.042913 -0.020786 -0.014363 0.054829 0.020437 -0.052611 -0.002943 -0.014105 -0.055091 0.019019 -0.012042 -0.009364 -0.023675 -0.020946 0.043697 0.024067 -0.046176 0.032028 -0.042899 0.004752 -0.023183 0.061523 -0.033916 -0.002464 -0.027628 0.002919 0.043719 0.021235 0.05341 0.044552 -0.007662 -0.019799 0.0198 0.001628 -0.035377 0.006957 -0.019163 -0.039907 -0.007021 0.006059 0.008725 0.027981 0.079211 0.001988 0.0359 0.004402 -0.008664 -0.05544 -0.007529 -0.015686 0.013534 -0.003544 -0.025773 -0.002138 0.016565 -0.007013 0.061134 -0.070594 -0.070576 -0.030294 0.020045 0.041231 0.011172 -0.054098 0.041809 -0.040657 -0.034439 0.035763 -0.012919 -0.017768 -0.004389 -0.088278 -0.029424 0.014786 -0.038644 -0.056847 -0.0017 0.042061 -0.005552 0.033012 -0.003086 -0.033014 0.043611 -0.015169 0.010665 -0.047558 0.045909 0.111378 -0.026927 0.01614 -0.066753 -0.06925 -0.035629 -0.023355 -0.028008 -0.033919 0.039371 0.075044 0.024574 0.013029 0.016971 -0.019414 -0.007659 -0.01019 0.002624 -0.062571 -0.035718 0.056546 0.082136 -0.022305 -0.02375 0.001866 0.036616 -0.012165 -0.001177 -0.021081 0.064847 -0.012122 0.025778 0.070978 -0.002021 0.003111 0.011191 -0.012816 0.055456 0.004003 -0.045984 -0.053535 0.019041 -0.04543 0.047353 0.071934 -0.006767 0.03021 0.022012 0.014259 -0.038518 -0.013078 -0.002663 -0.039311 0.009349 -0.025338 -0.030825 -0.002096 -0.046105 -0.004918 0.00571
c 0.012629 -0.023886 -0.030061 -0.023962 0.007255 -0.039635 -0.029794 -0.047608 0.048705 -0.01781 -0.001524 -0.010917 0.007086 -0.024625 0.015165 0.004717 -0.017614 -0.007158 -0.020585 0.033536 -0.00617 -0.013103 0.012759 0.024286 -0.020808 -0.029885 -0.03646 0.044584 -0.039129 0.047861 0.00392 -0.019169 -0.023855 0.005457 0.014798 -0.029327 -0.011846 -0.004323 -0.043605 -0.027794 0.056383 0.049505 -0.017265 -0.000741 -0.014938 -0.03764 0.024309 -0.02433 -0.059881 0.036745 0.013713 0.054864 0.003182 0.06824 0.007013 -0.00298 -0.049513 -0.043156 0.030642 0.004072 -0.029286 0.008585 -0.008175 -0.03179 -0.015192 0.020186 -0.032785 0.013552 -0.06908 0.021554 -0.047754 -0.038648 -0.021958 0.059394 -0.05266 0.042431 -0.014014 0.009072 -0.027232 -0.012563 0.000771 -0.000119 0.003236 -0.004555 -0.003804 -0.010757 -0.001945 -0.008026 0.050327 -0.00164 0.003452 -0.050131 0.034522 0.004609 -0.030157 -0.011552 0.04377 0.009885 0.009334 0.028279 -0.061394 -0.065772 -0.062297 0.028193 -0.011405 -0.009211 -0.003545 -0.049041 0.004103 0.076015 0.039019 0.020161 0.012743 0.024378 -0.022336 -0.023697 0.01452 0.014841 -0.00858 -0.024139 0.01436 0.009081 -0.032242 -0.049026 0.000668 -0.009067 0.027465 -0.034489 0.044717 0.002916 0.023462 0.0364 -0.013207 -0.014041 -0.028878 0.054797 -0.006599 -0.078698 0.036032 -0.028731 -0.028862 -0.021432 -0.014511 0.006431 -0.040257 0.000364 0.010587 -0.021315 0.092371 0.001253 0.017663 -0.005791 -0.030076 -0.038599 -0.020364 -0.012064 0.058905 0.015529 -0.053401 -0.005074 -0.015773 -0.057749 0.014873 -0.007836 -0.008611 -0.02409 -0.022806 0.040067 0.023785 -0.04718 0.024188 -0.041698 0.002734 -0.022083 0.060028 -0.038234 -0.002604 -0.026443 0.00063 0.040995 0.018264 0.050608 0.038903 -0.009309 -0.015059 0.02639 0.001017 -0.032286 0.005053 -0.01424 -0.037419 -0.006583 0.004137 0.01232 0.025674 0.07771 -0.004088 0.032591 0.003345 -0.008806 -0.050848 -0.013898 -0.018117 0.014326 -0.005893 -0.024988 -0.007024 0.014037 -0.007167 0.063413 -0.072956 -0.068766 -0.02807 0.016391 0.042846 0.010486 -0.054671 0.040153 -0.043772 -0.031063 0.034746 -0.007031 -0.018074 -0.003603 -0.082468 -0.03307 0.012271 -0.036321 -0.052456 -0.000559 0.042191 -0.005516 0.035427 -0.007078 -0.038477 0.03825 -0.016744 0.011594 -0.043201 0.040683 0.108407 -0.02713 0.011698 -0.074876 -0.066593 -0.035673 -0.021875 -0.025577 -0.032281 0.036928 0.08003 0.023187 0.011408 0.012062 -0.020301 -0.003599 -0.010157 0.005665 -0.056165 -0.044289 0.058543 0.078211 -0.024247 -0.02403 -0.000381 0.037626 -0.014021 0.002511 -0.02022 0.068308 -0.015873 0.028817 0.068109 0.003057 0.003932 0.015631 -0.020454 0.054137 0.004493 -0.041508 -0.052961 0.018456 -0.048087 0.050006 0.070245 -0.009925 0.028407 0.022789 0.018488 -0.03635 -0.012439 -0.007182 -0.043702 0.008736 -0.031548 -0.031262 -0.003184 -0.044197 -0.005955 0.002733
b 0.00336 -0.019034 -0.03106 -0.024807 0.00947 -0.043019 -0.027012 -0.054062 0.058589 -0.02575 0.000348 -0.005252 0.00225 -0.020963 0.012091 -0.001541 -0.020455 -0.009983 -0.02411 0.035381 -0.006221 -0.010123 0.0191 0.022561 -0.026477 -0.033913 -0.039768 0.047104 -0.042328 0.045563 0.000728 -0.017583 -0.024283 0.010926 0.01468 -0.028439 -0.010567 -0.002559 -0.043593 -0.028161 0.053006 0.04908 -0.019575 0.001989 -0.018849 -0.034625 0.025073 -0.024328 -0.060607 0.032214 0.012725 0.051685 0.004329 0.072304 0.01326 -0.005328 -0.051483 -0.037463 0.030654 0.003767 -0.028551 0.009349 -0.003509 -0.027738 -0.016309 0.021475 -0.036565 0.011604 -0.069322 0.021261 -0.049639 -0.033059 -0.014203 0.05781 -0.055141 0.039484 -0.015116 0.014023 -0.023268 -0.01382 0.003484 0.001366 0.001786 -0.011618 0.00335 -0.010602 -0.001303 -0.009956 0.053322 -0.00081 0.002541 -0.053823 0.032681 0.000187 -0.031779 -0.013374 0.04844 0.013207 0.016491 0.029256 -0.066454 -0.069483 -0.06578 0.029009 -0.014904 -0.012677 -0.002113 -0.047172 -0.000564 0.074194 0.044252 0.019099 0.009835 0.01783 -0.026816 -0.020705 0.016941 0.02077 -0.00757 -0.026455 0.01425 0.00602 -0.036601 -0.051973 0.001225 -0.010779 0.030422 -0.033049 0.042162 0.00106 0.023461 0.033646 -0.013094 -0.006099 -0.02852 0.05368 -0.009169 -0.077389 0.037876 -0.027679 -0.032063 -0.024883 -0.015635 0.008376 -0.039177 -0.004111 0.006919 -0.012466 0.088726 0.000208 0.013503 -0.002232 -0.028455 -0.044764 -0.022462 -0.013501 0.053488 0.018484 -0.05566 -0.00417 -0.013339 -0.05527 0.021753 -0.015042 -0.0056 -0.02159 -0.023084 0.043794 0.02473 -0.045706 0.029045 -0.039185 0.004737 -0.022752 0.06175 -0.037271 -0.002949 -0.02838 0.004488 0.040618 0.016609 0.053068 0.044105 -0.00813 -0.021317 0.022056 0.001286 -0.033844 0.006872 -0.017384 -0.039006 -0.007181 0.005793 0.010002 0.02857 0.079931 7.2e-05 0.037673 0.005555 -0.007285 -0.056128 -0.005264 -0.014899 0.015608 -0.005408 -0.028897 -0.003176 0.018546 -0.005315 0.061511 -0.071657 -0.072454 -0.033248 0.019915 0.041451 0.012117 -0.053929 0.041389 -0.041265 -0.032956 0.037134 -0.010894 -0.018978 -0.003284 -0.089974 -0.032251 0.01528 -0.040706 -0.053979 -0.003348 0.043294 -0.005011 0.034451 -0.003804 -0.032426 0.044139 -0.01881 0.009948 -0.046343 0.044684 0.114581 -0.024086 0.014113 -0.069885 -0.067146 -0.036126 -0.022935 -0.028165 -0.031567 0.041392 0.077535 0.02293 0.01431 0.016376 -0.019706 -0.008589 -0.009002 0.006733 -0.060876 -0.035368 0.056133 0.078215 -0.023649 -0.02288 0.002576 0.036931 -0.013222 0.000899 -0.021345 0.065963 -0.014295 0.02375 0.07176 0.000719 0.002554 0.010884 -0.013288 0.053838 0.006086 -0.042846 -0.051727 0.02001 -0.043245 0.046863 0.072208 -0.007658 0.027928 0.018038 0.015221 -0.036788 -0.01303 -0.003961 -0.041075 0.008932 -0.029148 -0.030199 -0.002701 -0.045484 -0.006153 0.007251
e 0.007235 -0.01813 -0.03365 -0.027562 0.013262 -0.041104 -0.025022 -0.051971 0.054353 -0.022312 0.000676 -0.00557 0.002878 -0.021743 0.011998 0.000536 -0.021801 -0.009677 -0.023043 0.036589 -0.008023 -0.01244 0.016131 0.023331 -0.028236 -0.032203 -0.039498 0.048058 -0.04315 0.047499 0.000433 -0.01536 -0.021678 0.010738 0.017856 -0.02951 -0.011841 -0.001057 -0.042371 -0.032311 0.054226 0.049946 -0.019459 -0.001905 -0.017696 -0.038254 0.028739 -0.023881 -0.062386 0.033424 0.011859 0.052926 0.007025 0.074942 0.009322 -0.005 -0.052903 -0.037906 0.027368 0.000942 -0.029749 0.007316 -0.002323 -0.026176 -0.012828 0.020612 -0.033574 0.016804 -0.071253 0.020935 -0.051109 -0.033251 -0.013518 0.059001 -0.051363 0.044671 -0.020252 0.013272 -0.027369 -0.015238 -0.000412 -0.000395 0.004518 -0.007242 0.006761 -0.009894 0.000741 -0.005813 0.049997 -0.001413 0.001452 -0.051931 0.033519 0.000905 -0.033286 -0.013869 0.049586 0.010981 0.017383 0.026867 -0.060061 -0.072354 -0.061929 0.02785 -0.016495 -0.017072 -0.004382 -0.047973 0.0012 0.068684 0.044736 0.020829 0.010392 0.017111 -0.022849 -0.019272 0.015795 0.018609 -0.005111 -0.021407 0.014552 0.005435 -0.03352 -0.053274 -0.000753 -0.010927 0.031999 -0.035831 0.040006 -0.00086 0.019063 0.036841 -0.015331 -0.005685 -0.0285 0.059344 -0.00657 -0.075823 0.037064 -0.026987 -0.030008 -0.026433 -0.015185 0.010734 -0.037572 -0.003172 0.006908 -0.01596 0.089277 -0.001698 0.017133 0.00449 -0.029249 -0.040685 -0.023649 -0.010862 0.050303 0.020145 -0.053601 -0.004486 -0.011853 -0.054917 0.018367 -0.014589 -0.002523 -0.024967 -0.023136 0.043221 0.01975 -0.047554 0.027383 -0.03748 0.005458 -0.018392 0.062225 -0.040916 -0.003845 -0.028144 0.003866 0.040884 0.014121 0.055056 0.041673 -0.006094 -0.024204 0.023032 0.001564 -0.034714 0.004821 -0.016647 -0.038697 -0.006072 0.003769 0.012806 0.027304 0.077623 -0.001857 0.03443 0.002691 -0.007138 -0.052927 -0.006354 -0.012621 0.017158 -0.007525 -0.029956 -0.006715 0.015711 -0.006701 0.060264 -0.073844 -0.07156 -0.033636 0.018919 0.044575 0.011486 -0.055052 0.042461 -0.040724 -0.030946 0.042242 -0.009341 -0.020984 -0.005035 -0.09072 -0.035432 0.01214 -0.040338 -0.052491 -0.002773 0.04288 -0.005513 0.037859 -0.004696 -0.036684 0.04522 -0.017818 0.010019 -0.045461 0.040614 0.114106 -0.026323 0.013463 -0.073205 -0.071483 -0.037604 -0.02196 -0.030496 -0.030956 0.038563 0.080123 0.026239 0.012448 0.01644 -0.022093 -0.006262 -0.011126 0.008964 -0.058556 -0.037455 0.055122 0.079571 -0.02612 -0.021236 0.003455 0.035297 -0.015131 0.002256 -0.020361 0.071939 -0.011631 0.021785 0.065715 0.005587 0.001007 0.01311 -0.013929 0.057529 0.006473 -0.043423 -0.05441 0.021845 -0.043206 0.045848 0.070348 -0.009719 0.030281 0.016603 0.016099 -0.034784 -0.013587 -0.003199 -0.042866 0.009166 -0.027053 -0.033416 -0.002248 -0.045722 -0.013299 0.008231
d 0.006761 -0.022295 -0.030128 -0.025804 0.006108 -0.040462 -0.028761 -0.051247 0.055372 -0.020124 0.003167 -0.005555 0.003071 -0.021065 0.014273 -0.0014 -0.020601 -0.009415 -0.022874 0.036006 -0.00699 -0.009897 0.018075 0.022823 -0.025218 -0.0345 -0.037904 0.046373 -0.042754 0.047879 0.001291 -0.016867 -0.024507 0.007864 0.014683 -0.03059 -0.012967 -0.004372 -0.03948 -0.027801 0.05613 0.049341 -0.017504 0.00079 -0.016965 -0.036507 0.027868 -0.02382 -0.057973 0.035568 0.01482 0.052473 0.004548 0.071756 0.009313 -0.00297 -0.050004 -0.040763 0.029267 0.003739 -0.027881 0.011008 -0.003674 -0.027125 -0.016341 0.019539 -0.036434 0.012382 -0.067521 0.020684 -0.04962 -0.033869 -0.015617 0.059634 -0.051498 0.043382 -0.014072 0.01111 -0.028522 -0.012452 0.00114 0.005419 0.005774 -0.005027 0.000134 -0.007705 -0.001179 -0.009419 0.055601 0.000862 0.003723 -0.050041 0.034903 0.002879 -0.033985 -0.014491 0.045898 0.010827 0.011858 0.02771 -0.063413 -0.06567 -0.063134 0.028135 -0.014403 -0.012806 -0.003083 -0.04832 -0.000102 0.073613 0.043161 0.019927 0.01269 0.020378 -0.024458 -0.023167 0.018761 0.016631 -0.007446 -0.027469 0.01065 0.008294 -0.038565 -0.053178 -0.001335 -0.009315 0.032162 -0.032508 0.045697 0.002584 0.02214 0.034197 -0.010663 -0.008999 -0.026979 0.057363 -0.009565 -0.077074 0.035644 -0.025406 -0.03005 -0.022609 -0.015509 0.008445 -0.038511 -0.002507 0.007113 -0.016767 0.087563 0.000335 0.013139 -0.001911 -0.028182 -0.039931 -0.020048 -0.01142 0.058074 0.018947 -0.052605 -0.004444 -0.013374 -0.056368 0.019963 -0.010194 -0.006865 -0.023404 -0.02219 0.041781 0.023672 -0.044434 0.025532 -0.037387 0.005954 -0.020458 0.059643 -0.036159 -0.008875 -0.030013 0.002433 0.040478 0.01621 0.052588 0.040246 -0.010212 -0.022904 0.022616 0.00168 -0.032319 0.007582 -0.015161 -0.039702 -0.007247 0.003054 0.009801 0.026066 0.076162 -0.002171 0.034087 0.005451 -0.010262 -0.053687 -0.01163 -0.016558 0.017726 -0.005609 -0.023681 -0.005382 0.015552 -0.007453 0.057782 -0.074341 -0.068268 -0.033633 0.020507 0.038826 0.010298 -0.05312 0.040066 -0.040731 -0.032449 0.036301 -0.01078 -0.01949 -0.003743 -0.08674 -0.03499 0.014396 -0.037361 -0.051495 -0.00251 0.042095 -0.004736 0.034739 -0.005444 -0.033671 0.038322 -0.018487 0.006949 -0.045745 0.044168 0.108427 -0.026259 0.009715 -0.069459 -0.066751 -0.03828 -0.022208 -0.027159 -0.033063 0.040762 0.077757 0.025083 0.015729 0.013877 -0.0199 -0.008336 -0.008141 0.00686 -0.056345 -0.034684 0.058971 0.079284 -0.022378 -0.020926 0.001776 0.031309 -0.014956 -0.000514 -0.019066 0.069592 -0.013571 0.025963 0.067084 0.005227 0.001351 0.012172 -0.012893 0.055253 0.006094 -0.039833 -0.052954 0.017507 -0.045911 0.049982 0.069829 -0.010446 0.027562 0.018702 0.014579 -0.034568 -0.01532 -0.004261 -0.041496 0.008567 -0.030929 -0.03188 -0.000126 -0.04348 -0.007705 0.007303
g 0.00988 -0.018765 -0.032345 -0.029056 0.017761 -0.045687 -0.023638 -0.052492 0.057549 -0.026797 -0.001069 -0.006756 0.004792 -0.01957 0.011428 -0.001007 -0.022504 -0.011148 -0.024962 0.038176 -0.009625 -0.008859 0.019787 0.02651 -0.028303 -0.03008 -0.04131 0.050695 -0.045058 0.044898 0.000155 -0.013733 -0.020517 0.012367 0.018002 -0.032246 -0.009412 9.7e-05 -0.04604 -0.031515 0.054306 0.051655 -0.019574 -0.000161 -0.019284 -0.037912 0.0263 -0.023724 -0.064189 0.030695 0.007701 0.051132 0.005877 0.077222 0.012761 -0.006303 -0.053199 -0.035543 0.026821 -0.003095 -0.030403 0.004333 -0.005165 -0.02706 -0.01289 0.022518 -0.032442 0.018884 -0.072542 0.020976 -0.050114 -0.029672 -0.013143 0.056562 -0.050138 0.041684 -0.022381 0.015045 -0.024621 -0.01725 0.002147 -0.003821 0.004216 -0.01211 0.012051 -0.013528 -0.000992 -0.003568 0.047499 -0.001177 0.000343 -0.054215 0.029514 -0.001225 -0.03701 -0.013915 0.052901 0.016053 0.021369 0.026966 -0.056203 -0.073185 -0.061443 0.028968 -0.017572 -0.020983 -0.005517 -0.046759 0.001799 0.070345 0.045167 0.019027 0.010326 0.012902 -0.027338 -0.016742 0.013804 0.025149 -0.004038 -0.019806 0.019282 0.000215 -0.033548 -0.052762 0.005064 -0.008921 0.028128 -0.036254 0.035976 0.002605 0.019305 0.035137 -0.01542 -0.001311 -0.02654 0.057491 -0.003016 -0.071145 0.038463 -0.031213 -0.031313 -0.029329 -0.015693 0.00893 -0.034962 -0.005526 0.006705 -0.012419 0.088372 -0.006074 0.017065 0.008366 -0.030917 -0.045105 -0.028469 -0.011922 0.046715 0.019245 -0.055219 -0.006524 -0.013033 -0.054677 0.018203 -0.013334 -0.003264 -0.028066 -0.025393 0.04608 0.018251 -0.048168 0.029383 -0.037223 0.006906 -0.017536 0.063443 -0.041878 0.002272 -0.028095 0.00478 0.043771 0.011866 0.056021 0.046321 -0.002448 -0.025525 0.021749 0.001907 -0.035434 0.005956 -0.017657 -0.037601 -0.0061 0.005913 0.013962 0.031707 0.080266 -0.001514 0.036691 0.001934 -1e-06 -0.051371 -0.002223 -0.010581 0.015838 -0.009642 -0.031924 -0.003485 0.016018 -0.002241 0.062741 -0.073497 -0.074975 -0.033524 0.016959 0.047297 0.012558 -0.056368 0.040502 -0.042487 -0.032614 0.046373 -0.009362 -0.020727 -0.003803 -0.093548 -0.034365 0.011916 -0.043991 -0.053613 -0.002034 0.046737 -0.004083 0.036907 -0.003165 -0.03927 0.048346 -0.017613 0.012161 -0.044768 0.038443 0.11345 -0.027066 0.018306 -0.078002 -0.071894 -0.038944 -0.022983 -0.032314 -0.029659 0.036732 0.079152 0.02719 0.009406 0.019266 -0.01966 -0.005777 -0.013323 0.008625 -0.059064 -0.039763 0.049311 0.07452 -0.025692 -0.019533 0.006405 0.038746 -0.013266 0.001393 -0.01603 0.068746 -0.013744 0.016053 0.068189 0.003697 0.002487 0.015293 -0.014295 0.060807 0.006549 -0.049432 -0.053462 0.02746 -0.042542 0.043891 0.070385 -0.006395 0.031766 0.016875 0.015694 -0.038659 -0.011269 -0.001135 -0.04124 0.007919 -0.02586 -0.034968 -0.002039 -0.052286 -0.017677 0.007096
f 0.01296 -0.0209 -0.039109 -0.024935 0.01198 -0.037655 -0.026527 -0.046359 0.049941 -0.018998 0.000514 -0.007262 0.010347 -0.026637 0.012547 0.00327 -0.018358 -0.006409 -0.022621 0.031694 -0.008871 -0.008282 0.015785 0.023182 -0.025315 -0.029705 -0.038077 0.046776 -0.040569 0.044924 0.004548 -0.012284 -0.021805 0.006055 0.017094 -0.029202 -0.012183 -0.000564 -0.044444 -0.030608 0.056961 0.050721 -0.013129 0.002593 -0.014482 -0.036323 0.027442 -0.021118 -0.059874 0.037985 0.012922 0.053441 0.008028 0.072576 0.008448 -0.006725 -0.051833 -0.042085 0.033001 -0.000769 -0.035743 0.006556 -0.006049 -0.029008 -0.014041 0.01974 -0.03464 0.013688 -0.070746 0.024343 -0.051177 -0.037426 -0.021534 0.064602 -0.053013 0.040355 -0.015741 0.008324 -0.027239 -0.013875 0.002123 0.000844 0.000929 -0.002391 0.002605 -0.007764 -0.001546 -0.009128 0.051016 -0.001273 0.004154 -0.051767 0.030338 0.008419 -0.03345 -0.009529 0.048978 0.010155 0.014615 0.025696 -0.060183 -0.067095 -0.061529 0.027641 -0.018242 -0.018726 -0.000157 -0.050649 0.003799 0.074868 0.045311 0.019837 0.013561 0.020091 -0.024323 -0.021946 0.014562 0.017324 -0.006627 -0.025455 0.018281 0.004346 -0.031445 -0.053814 -0.001707 -0.01108 0.02743 -0.035596 0.044422 0.000712 0.023055 0.040142 -0.01534 -0.008618 -0.027369 0.0575 -0.003393 -0.074873 0.039882 -0.027466 -0.028262 -0.026243 -0.015303 0.007336 -0.034668 0.000713 0.008568 -0.020356 0.08852 -0.002187 0.01581 0.002987 -0.030404 -0.042073 -0.027567 -0.008965 0.055476 0.017729 -0.055544 -0.005939 -0.016316 -0.059137 0.013319 -0.011134 -0.00258 -0.026151 -0.025076 0.038607 0.019686 -0.046494 0.020965 -0.039138 0.003548 -0.020014 0.061007 -0.042094 -0.00264 -0.030948 0.001254 0.039753 0.010981 0.053252 0.040045 -0.008369 -0.019641 0.025911 0.001108 -0.031339 0.006007 -0.012173 -0.037723 -0.008427 0.001307 0.016123 0.030076 0.079591 -0.006633 0.034204 0.003477 -0.004386 -0.04959 -0.011829 -0.013736 0.017484 -0.009355 -0.027679 -0.010042 0.013414 -0.004994 0.064675 -0.077809 -0.074123 -0.032943 0.017139 0.045249 0.011666 -0.055552 0.039243 -0.04578 -0.030143 0.042989 -0.004738 -0.020389 -0.005421 -0.088304 -0.038721 0.013327 -0.039757 -0.051255 -0.004365 0.046155 -0.004447 0.038886 -0.009076 -0.038488 0.038673 -0.019794 0.010663 -0.043933 0.036764 0.112436 -0.028208 0.0137 -0.082865 -0.068045 -0.038724 -0.020299 -0.027246 -0.02721 0.038923 0.081504 0.024508 0.010375 0.013705 -0.020044 -0.0024 -0.010604 0.010102 -0.052362 -0.044449 0.053703 0.072343 -0.026141 -0.019983 0.004628 0.036435 -0.015882 0.004524 -0.018154 0.069654 -0.017529 0.020961 0.066236 0.008398 0.004504 0.016492 -0.019049 0.057243 0.007757 -0.039647 -0.054359 0.022768 -0.045199 0.052774 0.067147 -0.008545 0.0292 0.019126 0.019985 -0.032381 -0.011183 -0.005642 -0.045309 0.008927 -0.033004 -0.033791 -0.001364 -0.044397 -0.012924 0.004218
i 0.0108 -0.021413 -0.032802 -0.028625 0.013464 -0.046338 -0.0268 -0.051417 0.053738 -0.021139 0.000116 -0.010559 0.005205 -0.02003 0.010301 0.003816 -0.020845 -0.009077 -0.022262 0.036035 -0.008555 -0.01056 0.015384 0.024018 -0.024685 -0.030855 -0.038732 0.047987 -0.040247 0.046931 0.003755 -0.014964 -0.022645 0.009089 0.019056 -0.032459 -0.010961 -0.003495 -0.045205 -0.029271 0.054872 0.050275 -0.017383 -0.001216 -0.018801 -0.037521 0.025308 -0.023277 -0.061687 0.034577 0.011974 0.054133 0.004654 0.072733 0.008006 -0.006211 -0.05286 -0.037757 0.029731 -0.0006 -0.027909 0.006012 -0.008632 -0.029532 -0.01244 0.02028 -0.031517 0.013687 -0.071713 0.021415 -0.049719 -0.032108 -0.017576 0.058195 -0.050608 0.041887 -0.017282 0.008636 -0.026333 -0.017693 0.000836 -0.000852 0.002748 -0.008855 0.005786 -0.012783 0.000702 -0.004931 0.048629 0.000361 0.000845 -0.05086 0.02969 0.005509 -0.034318 -0.013974 0.047555 0.014273 0.016695 0.028899 -0.056588 -0.067699 -0.062018 0.030389 -0.015533 -0.017021 -0.005618 -0.048632 0.004477 0.07115 0.042258 0.01861 0.011001 0.017441 -0.024265 -0.018231 0.014337 0.017739 -0.002793 -0.022552 0.017549 0.003523 -0.032347 -0.050039 0.004065 -0.010094 0.026979 -0.036045 0.039932 0.002441 0.020645 0.0377 -0.013371 -0.008211 -0.026431 0.056806 -0.004901 -0.075067 0.037688 -0.029808 -0.029004 -0.026132 -0.015457 0.007164 -0.036075 -0.003161 0.008043 -0.016425 0.089837 -0.001481 0.018793 0.001559 -0.02957 -0.042693 -0.024511 -0.01203 0.052621 0.019237 -0.053677 -0.004536 -0.013741 -0.057239 0.013363 -0.008789 -0.004752 -0.027006 -0.021894 0.042607 0.018264 -0.047943 0.026897 -0.03921 0.004092 -0.020286 0.062408 -0.038524 -0.00036 -0.027215 0.001274 0.045332 0.016266 0.054952 0.043146 -0.004248 -0.020875 0.022002 0.000561 -0.033466 0.006716 -0.016214 -0.038439 -0.00707 0.003997 0.013867 0.03028 0.079084 -0.003129 0.033309 0.002036 -0.004179 -0.051089 -0.008818 -0.012228 0.013192 -0.008686 -0.025538 -0.005633 0.014116 -0.007108 0.064513 -0.074987 -0.072495 -0.030012 0.016601 0.044905 0.010668 -0.057399 0.04036 -0.043331 -0.032557 0.041488 -0.008843 -0.01814 -0.004894 -0.089674 -0.03291 0.010721 -0.040116 -0.054351 -0.000896 0.045981 -0.005154 0.038112 -0.005638 -0.038471 0.041309 -0.016636 0.012595 -0.044241 0.038572 0.113195 -0.028207 0.017158 -0.076163 -0.0725 -0.039608 -0.02255 -0.029788 -0.029457 0.038197 0.078473 0.026181 0.011121 0.016563 -0.019152 -0.00424 -0.013187 0.004536 -0.058553 -0.044348 0.054478 0.076254 -0.024598 -0.021655 0.005786 0.036662 -0.012581 0.003759 -0.01758 0.06632 -0.01436 0.021587 0.067953 0.003731 0.005022 0.016477 -0.01717 0.0601 0.006234 -0.046348 -0.055149 0.024169 -0.047826 0.048964 0.070093 -0.006633 0.031358 0.021543 0.018607 -0.035328 -0.010473 -0.002074 -0.041991 0.008044 -0.02702 -0.033346 -0.000554 -0.049962 -0.013276 0.004356
h 0.004248 -0.020538 -0.035446 -0.033888 0.022636 -0.049958 -0.020459 -0.058109 0.067431 -0.033333 -0.005221 -0.004972 -0.000119 -0.015348 0.007201 -0.009306 -0.024755 -0.014204 -0.023617 0.043926 -0.014778 -0.009737 0.027343 0.02788 -0.036776 -0.03075 -0.045481 0.054645 -0.046175 0.041148 0.002567 -0.009464 -0.020157 0.019307 0.023021 -0.034553 -0.008535 0.005084 -0.056506 -0.030704 0.053344 0.049651 -0.017676 0.006963 -0.026753 -0.034194 0.023302 -0.024078 -0.06318 0.028529 0.003714 0.048423 0.005947 0.083399 0.018826 -0.012871 -0.054333 -0.024476 0.032906 -0.011663 -0.028505 0.002672 -0.00645 -0.025116 -0.014399 0.023343 -0.0329 0.017544 -0.075356 0.020245 -0.054937 -0.023763 -0.007176 0.056023 -0.05158 0.036637 -0.021127 0.018393 -0.019532 -0.022875 0.00921 -0.006986 0.001322 -0.019515 0.021661 -0.017073 -0.002557 -0.002925 0.047207 -0.000677 0.001678 -0.058235 0.022476 -0.003472 -0.043498 -0.016517 0.060726 0.019808 0.030851 0.029099 -0.059109 -0.073334 -0.065222 0.034078 -0.023186 -0.027738 -0.007612 -0.046762 -0.000163 0.071312 0.0517 0.018204 0.009712 0.006692 -0.033862 -0.01339 0.018765 0.028842 -0.002058 -0.024118 0.023165 -0.007375 -0.032526 -0.052408 0.009456 -0.009068 0.02378 -0.036185 0.033328 0.005034 0.017722 0.032869 -0.012481 0.006231 -0.026632 0.058536 0.002005 -0.068838 0.044049 -0.034774 -0.030282 -0.03513 -0.017638 0.010719 -0.029665 -0.01301 0.001961 0.001165 0.086537 -0.011795 0.015392 0.013864 -0.03356 -0.050715 -0.03359 -0.008164 0.043422 0.022463 -0.058245 -0.002632 -0.01613 -0.052069 0.020146 -0.016582 -0.002567 -0.028625 -0.022785 0.053659 0.017148 -0.055622 0.037067 -0.036792 0.005953 -0.017042 0.070156 -0.043747 0.00164 -0.030041 0.005914 0.048679 0.01141 0.058509 0.05427 0.001239 -0.02155 0.018703 0.00373 -0.040863 0.011102 -0.01834 -0.0419 -0.008924 0.01085 0.008132 0.038713 0.082978 0.000686 0.038795 0.000948 0.003817 -0.05345 0.007773 -0.010811 0.017578 -0.012546 -0.037763 -0.000429 0.021566 0.001583 0.065262 -0.073911 -0.082298 -0.038893 0.02002 0.052122 0.010014 -0.055414 0.042613 -0.045617 -0.035293 0.055131 -0.01263 -0.0207 -0.002097 -0.103428 -0.030591 0.013678 -0.049483 -0.058135 -0.002592 0.055233 -0.000208 0.039957 0.001608 -0.036346 0.055704 -0.02017 0.011203 -0.048338 0.037625 0.121953 -0.02382 0.026084 -0.083284 -0.075799 -0.041927 -0.026612 -0.04021 -0.019884 0.044174 0.079676 0.028853 0.007026 0.023662 -0.016137 -0.010695 -0.014778 0.010836 -0.061058 -0.038486 0.040219 0.068717 -0.026912 -0.015853 0.017187 0.042557 -0.016115 0.001194 -0.011388 0.0681 -0.01323 0.004198 0.069987 0.002623 0.007644 0.016271 -0.007848 0.068229 0.007611 -0.055199 -0.055731 0.031403 -0.038903 0.040567 0.06689 0.003921 0.036611 0.015476 0.010094 -0.038954 -0.010903 0.002237 -0.042415 0.002479 -0.018804 -0.03421 0.004455 -0.058306 -0.021569 0.009419
